{"schema": "astroroot/lateral-estimator/v1", "features": ["prof0", "prof1", "prof2", "prof3", "prof4", "prof5", "prof6", "prof7", "prof8", "prof9", "prof10", "prof11", "prof12", "prof13", "prof14", "prof15", "prof16", "prof17", "prof18", "prof19", "prof20", "prof21", "prof22", "prof23", "prof24", "prof25", "prof26", "prof27", "prof28", "prof29", "widthDepthRatio", "comX", "comY", "solidity", "maxCross", "meanCross", "argmaxDepth"], "featMean": [1.9135586023330688, 1.9318137168884277, 2.010449171066284, 2.2872724533081055, 2.74442458152771, 3.085592031478882, 3.3343422412872314, 3.4937798976898193, 3.5904362201690674, 3.6246728897094727, 3.643440008163452, 3.678863525390625, 3.703162431716919, 3.695786237716675, 3.6787893772125244, 3.6286139488220215, 3.552640676498413, 3.454108476638794, 3.322330951690674, 3.2081847190856934, 3.082451343536377, 2.957467555999756, 2.831545829772949, 2.6941134929656982, 2.5480713844299316, 2.3812925815582275, 2.1785871982574463, 1.921423077583313, 1.5656026601791382, 1.1717438697814941, 0.5119400024414062, 0.4999675750732422, 0.4807693362236023, 0.09892871230840683, 5.3179707527160645, 2.89715576171875, 0.4350808560848236], "featStd": [0.7750202417373657, 0.7894024848937988, 0.8809306621551514, 1.1752650737762451, 1.5417975187301636, 1.8071352243423462, 1.9920837879180908, 2.1195032596588135, 2.1966872215270996, 2.2389042377471924, 2.2437875270843506, 2.274890184402466, 2.28385066986084, 2.2654967308044434, 2.262179374694824, 2.2513997554779053, 2.2302558422088623, 2.1784496307373047, 2.0893287658691406, 2.048280715942383, 1.9912036657333374, 1.912070393562317, 1.8332715034484863, 1.7331926822662354, 1.617706537246704, 1.4635580778121948, 1.266384482383728, 1.0319935083389282, 0.7525640726089478, 0.3561440408229828, 0.18637514114379883, 0.07073891162872314, 0.04795273765921593, 0.07515835762023926, 2.6583046913146973, 1.3640985488891602, 0.21943582594394684], "targets": ["n_laterals", "mean_lat_angle", "lateral_fraction"], "targetMean": [14.937999725341797, 52.61008071899414, 0.5281633734703064], "targetStd": [11.63626480102539, 18.868732452392578, 0.22095926105976105], "layers": [{"W": [[0.09738235175609589, 0.09839937835931778, -0.17818626761436462, 0.36420345306396484, -0.053793806582689285, -0.07387909293174744, -0.10885255038738251, 0.2397429645061493, 0.3044325113296509, -0.1639537215232849, 0.11108338087797165, 0.15256553888320923, 0.0010913400910794735, -0.011022569611668587, 0.15673349797725677, -0.01822955161333084, -0.025621946901082993, 0.07116806507110596, 0.004337240010499954, 0.06812296062707901, -0.04942285642027855, -0.041286956518888474, 0.08076479285955429, 0.11411619931459427, -0.2356376051902771, -0.09141245484352112, 0.04615451768040657, -0.07001388072967529, -0.13523857295513153, -0.10793931037187576, -0.0045227245427668095, -0.05531281232833862, 0.2614799439907074, 0.11136005073785782, -0.08674369752407074, 0.11313124746084213, -0.07649730890989304], [0.13748490810394287, -0.03129784017801285, 0.028721584007143974, 0.1566866636276245, 0.05502902343869209, 0.1142449751496315, 0.12693603336811066, 0.13721846044063568, 0.03927445039153099, 0.1784500628709793, 0.060441821813583374, 0.10298328846693039, -0.010344618000090122, -0.1376362293958664, -0.017489325255155563, -0.06279317289590836, 0.10571298003196716, 0.0956023782491684, 0.15392759442329407, 0.15106798708438873, -0.037120867520570755, 0.13409119844436646, -0.016483094543218613, 0.010881359688937664, -0.12942631542682648, 0.005902986507862806, -0.009980695322155952, -0.0017517965752631426, -0.011757808737456799, 0.07803039252758026, -0.10073746740818024, -0.03412413224577904, -0.28923240303993225, 0.3574787974357605, -0.028215544298291206, 0.19757330417633057, -0.32161834836006165], [-0.050381217151880264, -0.09374318271875381, 0.014890274964272976, 0.07042016834020615, 0.03535572439432144, 0.07745584845542908, -0.06474880129098892, -0.170305073261261, -0.12083922326564789, -0.19556911289691925, 0.021519290283322334, -0.18254737555980682, -0.07093136012554169, -0.16462953388690948, -0.14772599935531616, -0.11258697509765625, -0.10125094652175903, -0.04473210126161575, 0.04125366732478142, 0.09072582423686981, -0.09665258228778839, -0.14100661873817444, 0.09165414422750473, -0.03600171580910683, -0.1490868777036667, -0.2915511429309845, -0.142660453915596, 0.008448024280369282, -0.009442048147320747, -0.17498396337032318, -0.012849751859903336, -0.14551056921482086, -0.4587312638759613, -0.006662760395556688, -0.28848692774772644, -0.17361219227313995, -0.07688093930482864], [0.13634800910949707, 0.21787607669830322, 0.1505185216665268, -0.03798867017030716, -0.15001901984214783, -0.17863458395004272, -0.2734900414943695, -0.22586585581302643, -0.23651310801506042, 0.17674100399017334, -0.04181225970387459, -0.07190899550914764, -0.03174846991896629, -0.060228340327739716, -0.24157507717609406, -0.11999554187059402, -0.17797262966632843, -0.10237091034650803, 0.0061597698368132114, 0.159493088722229, 0.11818306148052216, -0.022058114409446716, -0.051284659653902054, -0.00711974548175931, -0.027061376720666885, -0.16074316203594208, -0.14098107814788818, -0.0350470207631588, -0.1971822828054428, -0.05247288942337036, -0.17379330098628998, 0.07520980387926102, -0.13752853870391846, -0.0050154877826571465, 0.024458901956677437, 0.06045591086149216, 0.10563747584819794], [0.15456701815128326, -0.08795281499624252, -0.00961725227534771, -0.014131350442767143, 0.05447711795568466, -0.13128797709941864, 0.37372028827667236, -0.1635214388370514, -0.04899280518293381, -0.03497874736785889, 0.11174190789461136, -0.0682535395026207, 0.15684780478477478, 0.06511619687080383, 0.08851427584886551, -0.005615308415144682, 0.08765409141778946, -0.12818245589733124, 0.008002456277608871, 0.2158118486404419, 0.1310538947582245, -0.15652728080749512, -0.1694340854883194, -0.03941122069954872, 0.11180429905653, 0.10438646376132965, -0.021449092775583267, -0.13179507851600647, -0.0856068804860115, 0.014394822530448437, -0.14682218432426453, 0.052658550441265106, 0.22105799615383148, -0.05411560460925102, 0.09475969523191452, -0.03948645293712616, 0.23924817144870758], [0.20389217138290405, 0.29589974880218506, 0.16045795381069183, 0.08437592536211014, 0.028986774384975433, -0.12865115702152252, -0.15072037279605865, 0.09905458241701126, 0.06707677990198135, -0.10239707678556442, -0.047871142625808716, 0.06660646945238113, -0.05214381217956543, -0.005353739019483328, 0.19493459165096283, -0.18474066257476807, -0.11755578964948654, 0.18640008568763733, 0.08872544020414352, -0.06938359141349792, -0.21165868639945984, 0.047570373862981796, -0.126323401927948, -0.07578503340482712, 0.08889713138341904, 0.18290166556835175, 0.07339824736118317, -0.05694877728819847, -0.1533976048231125, 0.09709423780441284, 0.11622021347284317, -0.009219531901180744, 0.03268434852361679, 0.26813822984695435, -0.105663001537323, -0.10638584196567535, 0.08039475232362747], [0.18376776576042175, 0.09641317278146744, 0.0347062312066555, 0.11530787497758865, 0.3066351115703583, 0.26674407720565796, -0.19052854180335999, -0.3069145381450653, -0.07880806922912598, 0.08196095377206802, 0.10160519927740097, -0.007216273341327906, -0.041340671479701996, -0.1448943018913269, -0.17168277502059937, -0.2167607843875885, -0.07083166390657425, -0.2327812910079956, 0.07140317559242249, -0.0450454019010067, 0.015903335064649582, -0.24708831310272217, 0.034255318343639374, -0.08965740352869034, -0.08366721868515015, 0.07912884652614594, -0.1366659551858902, 0.18256692588329315, 0.03902491182088852, -0.24448075890541077, 0.0960349589586258, -0.011313685216009617, -0.160039022564888, -0.09190138429403305, 0.29601913690567017, -0.11681311577558517, -0.011812145821750164], [0.18210460245609283, 0.40170323848724365, -0.056942813098430634, 0.029777998104691505, -0.07090749591588974, 0.04697500541806221, 0.08365663141012192, 0.1152593120932579, -0.08989298343658447, -0.01369056012481451, 0.02573336474597454, 0.15096791088581085, -0.1443701684474945, 0.20413747429847717, 0.07773227244615555, 0.2713843882083893, -0.21708296239376068, -0.35589808225631714, -0.057932980358600616, 0.06399232149124146, -0.28120890259742737, -0.007302817422896624, -0.2267802506685257, -0.16209731996059418, -0.11026518046855927, -0.07284194231033325, 0.17074699699878693, -0.21468545496463776, 0.2512582540512085, 0.05129887908697128, 0.02819451130926609, -0.2247886210680008, -0.06426907330751419, -0.16832852363586426, -0.3184448778629303, 0.06365547329187393, 0.02250218391418457], [-0.07929028570652008, 0.05478532239794731, -0.07722429931163788, -0.23264838755130768, 0.03004007413983345, -0.08079318702220917, -0.06422307342290878, -0.16377976536750793, -0.2514849305152893, 0.0855165645480156, -0.13483008742332458, -0.07734961807727814, -0.06623672693967819, -0.009978905320167542, 0.1465403139591217, 0.03346487879753113, -0.2729322612285614, 0.0020706425420939922, 0.13492195308208466, -0.057452354580163956, -0.0029939233791083097, 0.20761290192604065, 0.07001786679029465, 0.24431054294109344, -0.06917908042669296, -0.062184322625398636, 0.16564857959747314, 0.08325838297605515, -0.028905026614665985, -0.0699552595615387, -0.18784202635288239, -0.013735820539295673, -0.4732639491558075, 0.004170902073383331, 0.11078822612762451, -0.0016020217444747686, 0.05554434284567833], [-0.09131184220314026, 0.10147663950920105, -0.20685350894927979, -0.14745812118053436, 0.11198747158050537, -0.08663515746593475, -0.10735579580068588, -0.01597784459590912, -0.06009918823838234, -0.142256960272789, -0.12993118166923523, -0.13847880065441132, -0.12250838428735733, 0.016088170930743217, -0.07349343597888947, -0.013080932199954987, 0.08897412568330765, 0.10506746917963028, 0.23089158535003662, 0.25655558705329895, 0.12417995929718018, -0.010648401454091072, 0.18858259916305542, 0.16331183910369873, -0.07895347476005554, -0.06908300518989563, 0.11222051084041595, 0.07105615735054016, -0.1645517796278, -0.31102320551872253, -0.024026688188314438, -0.12999103963375092, -0.06628711521625519, -0.11383964121341705, -0.2128746509552002, -0.13721737265586853, -0.0036342621315270662], [0.23975811898708344, 0.26013895869255066, 0.026356620714068413, 0.05390963703393936, -0.09847520291805267, -0.21012502908706665, -0.13675902783870697, 0.07333792001008987, 0.07659891992807388, -0.006354624405503273, 0.15754210948944092, -0.061961207538843155, 0.13930563628673553, 0.131527379155159, 0.18956248462200165, 0.16169267892837524, 0.026577629148960114, 0.015707390382885933, 0.08069172501564026, -0.027554268017411232, -0.058141086250543594, 0.027449721470475197, 0.1079275980591774, 0.1450817734003067, -0.019664790481328964, -0.02069784142076969, -0.048050493001937866, -0.03507550433278084, 0.01788710243999958, -0.05794157832860947, -0.13524702191352844, 0.01460778247565031, -0.1967497020959854, -0.030701275914907455, -0.34911179542541504, -0.10273747891187668, -0.12869291007518768], [-0.05001275986433029, 0.019034188240766525, 0.05221700668334961, 0.08399100601673126, -0.3039548695087433, 0.19593048095703125, 0.1354367434978485, 0.26488038897514343, -0.3532916009426117, -0.019759567454457283, 0.24375738203525543, 0.1293543130159378, -0.0995890274643898, 0.0047975205816328526, -0.09377659112215042, 0.03830365836620331, -0.1121034249663353, 0.01804020255804062, 0.20563837885856628, -0.028197836130857468, -0.29633817076683044, -0.04979584738612175, 0.30778566002845764, 0.09241220355033875, -0.2518807649612427, -0.11794587969779968, 0.1756593883037567, -0.2588844895362854, 0.08197518438100815, -0.04078749939799309, 0.037174101918935776, -0.014636153355240822, 0.19971705973148346, -0.07141987234354019, 0.10259701311588287, 0.02096874639391899, -0.03528774529695511], [0.009997649118304253, -0.1437063068151474, -0.12369409948587418, 0.14470112323760986, 0.12506109476089478, -0.11423996835947037, -0.0805579125881195, -0.16056381165981293, -0.16754062473773956, 0.08406881242990494, 0.04577256366610527, -0.018953125923871994, 0.010840981267392635, 0.16264358162879944, -0.0006870507495477796, -0.026391170918941498, 0.007718329317867756, 0.02485593594610691, 0.10948354005813599, -0.08552291989326477, -0.03173629567027092, -0.18901550769805908, -0.1924152374267578, -0.14933861792087555, 0.12551908195018768, 0.056687165051698685, 0.2278442680835724, 0.14448189735412598, 0.1629694551229477, -0.0008722528582438827, -0.2206156700849533, 0.009191122837364674, -0.2101014107465744, -0.028723524883389473, 0.15896663069725037, 0.024984000250697136, 0.15303806960582733], [-0.12112937122583389, -0.1670704334974289, -0.08093952387571335, -0.13360758125782013, -0.01478918269276619, 0.13824819028377533, 0.12497284263372421, 0.3634290397167206, 0.25862187147140503, 0.1944001019001007, 0.2079412341117859, 0.023188581690192223, -0.0684075579047203, -0.030977576971054077, 0.08420448005199432, 0.01355805341154337, -0.026286322623491287, -0.14360204339027405, -0.13064438104629517, -0.09839652478694916, -0.05165063962340355, -0.05024239420890808, 0.022514237090945244, 0.027826406061649323, 0.06462640315294266, -0.07682500034570694, -0.07990243285894394, 0.09891518950462341, -0.0802551805973053, 0.02726401947438717, -0.23849254846572876, -0.009848175570368767, -0.008728408254683018, -0.12491761893033981, -0.0849648043513298, 0.1517646759748459, -0.12016123533248901], [0.11710017919540405, -0.14286071062088013, -0.048426054418087006, 0.2626486122608185, -0.32159191370010376, 0.12010033428668976, 0.0676117017865181, -0.4314350485801697, 0.15830667316913605, 0.11470407247543335, 0.042684804648160934, -0.04514193907380104, -0.003514062613248825, -0.16108040511608124, 0.01954883337020874, 0.0996924415230751, 0.15166078507900238, -0.17342321574687958, -0.2156515121459961, 0.19776174426078796, -0.1676776260137558, 0.2622552812099457, -0.025868818163871765, 0.03266218677163124, -0.059133030474185944, -0.040749650448560715, 0.1004597544670105, 0.11405107378959656, 0.0004494724562391639, 0.015089565888047218, 0.08389097452163696, -0.002771888393908739, -0.21039459109306335, 0.058163486421108246, 0.08081389963626862, 0.052434783428907394, -0.024339688941836357], [0.04047622159123421, 0.19997619092464447, 0.22127357125282288, 0.153501957654953, 0.1503782570362091, -0.030304135754704475, 0.010167784057557583, -0.001335099688731134, -0.15426377952098846, -0.17088191211223602, 0.030092701315879822, -0.06718084216117859, -0.06253957003355026, -0.0995435044169426, -0.005221362225711346, -0.10846569389104843, -0.06583700329065323, -0.23724208772182465, 0.09076415747404099, 0.14001700282096863, -0.06953621655702591, -0.11025486886501312, -0.05965513736009598, -0.22913970053195953, -0.21427959203720093, 0.1449948102235794, -0.2385384738445282, -0.07176362723112106, 0.17480510473251343, 0.044272080063819885, 0.11616156250238419, 0.11572179943323135, -0.025586307048797607, 0.017342960461974144, -0.13301680982112885, 0.05996309965848923, 0.20070190727710724], [-0.11708855628967285, 0.019571518525481224, -0.07360008358955383, 0.0590144544839859, 0.009429513476788998, -0.022372711449861526, 0.07061009854078293, 0.027776828035712242, -0.17857737839221954, 0.0281297005712986, -0.11968887597322464, -0.10158640146255493, -0.24224169552326202, -0.27492162585258484, 0.05263994634151459, 0.11729352176189423, 0.1029701828956604, 0.0102835139259696, 0.14831620454788208, -0.026246104389429092, -0.11835307627916336, -0.018459727987647057, -0.09722325950860977, 0.07440220564603806, 0.08092828840017319, 0.0192785132676363, -0.006965260021388531, 0.08145970106124878, 0.05795751139521599, -0.03817833214998245, -0.25691741704940796, -0.3287160396575928, -0.034163568168878555, 0.0409759096801281, -0.18728302419185638, 0.06967051327228546, -0.13135568797588348], [-0.10593730956315994, -0.16765418648719788, -0.17580686509609222, -0.0644695907831192, 0.07941208779811859, -0.07271154969930649, -0.03936959058046341, -0.18937981128692627, -0.0068199895322322845, -0.15394474565982819, -0.06432508677244186, 0.03528980165719986, -0.08474718034267426, 0.16525627672672272, 0.07988081127405167, -0.22051243484020233, -0.1502726525068283, 0.11160337179899216, -0.09827328473329544, -0.0688885822892189, 0.041763659566640854, 0.154091477394104, -0.10950271785259247, 0.1668049395084381, -0.09174541383981705, 0.010979809798300266, -0.03600094094872475, -0.18099649250507355, 0.12647795677185059, 0.1528041660785675, 0.14591769874095917, -0.2780025899410248, 0.15508271753787994, -0.19110913574695587, 0.13331840932369232, 0.04463251680135727, 0.02082013711333275], [0.056252699345350266, 0.024205634370446205, 0.18069671094417572, -0.24110576510429382, -0.031329523772001266, -0.04923636466264725, 0.11386311799287796, 0.005989610217511654, -0.2343943566083908, 0.10590118169784546, -0.07653786242008209, 0.0018837786046788096, -0.10845611989498138, 0.006613811012357473, 0.15700620412826538, -0.016144244000315666, -0.150100439786911, 0.015060480684041977, -0.006558684166520834, 0.21607691049575806, -0.034198470413684845, 0.04652823135256767, -0.015497173182666302, 0.09820475429296494, 0.074944406747818, 0.18772362172603607, 0.016424600034952164, 0.14118222892284393, -0.06658235937356949, 0.031107092276215553, 0.1617073118686676, -0.047432731837034225, -0.2670922875404358, 0.34723785519599915, 0.15515398979187012, -0.0735120102763176, -0.06124434620141983], [0.18348953127861023, 0.2711106240749359, -0.23751972615718842, 0.05601813644170761, 0.18893970549106598, -0.03860180079936981, -0.10026951879262924, 0.1575128734111786, 0.057131726294755936, 0.2176610380411148, -0.06092153862118721, -0.03650559112429619, -0.07034692168235779, 0.12604424357414246, -0.24243053793907166, -0.03371439501643181, -0.006792315747588873, -0.24895451962947845, -0.06558382511138916, -0.011675311252474785, 0.19831575453281403, -0.13817386329174042, 0.020746668800711632, 0.1250673085451126, -0.24763742089271545, -0.1375429332256317, -0.29578638076782227, 0.14736691117286682, -0.12360770255327225, -0.1364302933216095, 0.11206281930208206, -0.003417004831135273, 0.27514979243278503, -0.18473407626152039, -0.1350707858800888, 0.06254976987838745, 0.24136866629123688], [0.14290854334831238, 0.1564018875360489, 0.20963358879089355, 0.2694705128669739, -0.02350737527012825, 0.020263127982616425, 0.11488127708435059, -0.10902641713619232, -0.026560313999652863, 0.22631652653217316, 0.203759104013443, 0.099713034927845, 0.04814827814698219, 0.02180265635251999, 0.13293024897575378, -0.05400079861283302, -0.016796324402093887, 0.00027544793556444347, -0.051512859761714935, 0.2478588968515396, -0.060948729515075684, 0.02098734676837921, -0.008860331028699875, -0.10302507877349854, -0.16464948654174805, 0.16421666741371155, 0.022357605397701263, 0.004385023377835751, -0.07887047529220581, 0.2453625202178955, 0.2941227853298187, -0.02443586103618145, 0.03675331920385361, -0.045643460005521774, 0.028030842542648315, 0.01979927532374859, 0.018238762393593788], [0.19618144631385803, 0.1292928159236908, 0.11865737289190292, -0.03406565636396408, -0.3150878846645355, 0.05750258266925812, -0.0416577011346817, -0.0400366447865963, -0.08312711119651794, 0.12799951434135437, 0.06340233981609344, -0.10677722841501236, 0.05041956529021263, -0.006579956971108913, 0.001093938248232007, -0.152762308716774, -0.022803498432040215, 0.22907455265522003, -0.19779419898986816, -0.1068238839507103, 0.021277546882629395, -0.06887459009885788, -0.00830388069152832, -0.11451665312051773, -0.016693085432052612, -0.12448680400848389, 0.08066006749868393, -0.2854580581188202, -0.19197499752044678, -0.10419432073831558, 0.12597355246543884, 0.01282261498272419, -0.18069568276405334, -0.1297047734260559, -0.2535674571990967, 0.023608535528182983, 0.011195442639291286], [0.0746924951672554, 0.13763868808746338, 0.33228299021720886, 0.15965144336223602, -0.17789101600646973, 0.07051524519920349, 0.04489271715283394, 0.1638813018798828, -0.013132283464074135, 0.05865051969885826, -0.09717106074094772, 0.04926207289099693, 0.035111673176288605, -0.20550355315208435, 0.08131532371044159, 0.030470341444015503, 0.05970412865281105, -0.04888807237148285, -0.3089931905269623, -0.14027076959609985, -0.12091653048992157, 0.15020252764225006, -0.1314932256937027, 0.0020138032268732786, 0.25992414355278015, 0.0058424328453838825, -0.05808930844068527, -0.1664968878030777, -0.2396630346775055, -0.18495163321495056, 0.0025057427119463682, 0.19115041196346283, 0.08632364124059677, 0.12053171545267105, 0.1599881798028946, 0.15976503491401672, 0.04809386655688286], [-0.12146482616662979, -0.09781139343976974, 0.05084021016955376, -0.09656407684087753, 0.14042897522449493, 0.08376165479421616, 0.12969964742660522, 0.24959902465343475, 0.17317946255207062, 0.019546309486031532, -0.12284135818481445, 0.17702054977416992, 0.07172096520662308, 0.04382919520139694, 0.157709002494812, 0.1367676854133606, 0.15275512635707855, 0.13625578582286835, -0.21186740696430206, -0.10635437816381454, 0.18056727945804596, 0.03869285061955452, 0.0239951740950346, -0.005789268296211958, 0.02884645201265812, 0.15667606890201569, -0.016874099150300026, 0.046383313834667206, -0.10089727491140366, 0.10283919423818588, 0.10788729041814804, -0.19789883494377136, 0.12976567447185516, 0.22740496695041656, 0.23124390840530396, 0.1581791490316391, 0.03505268320441246], [-0.17306286096572876, 0.007504187524318695, -0.0118379145860672, -0.07167498022317886, -0.07263479381799698, -0.03368313983082771, 0.002637755824252963, -0.011856245808303356, -0.1780218482017517, -0.21365642547607422, -0.07342228293418884, 0.03461074084043503, 0.2368190586566925, 0.2081575095653534, 0.21814006567001343, 0.005902084056288004, 0.06144210696220398, -0.020758667960762978, -0.1640571802854538, 0.01628292165696621, -0.09591104835271835, 0.00772165646776557, 0.05018869414925575, 0.1467389613389969, 0.1665373146533966, -0.03449122980237007, 0.06340816617012024, -0.03633197396993637, -0.08077330142259598, 0.18113544583320618, -0.09402495622634888, 0.05905561521649361, -0.1389964520931244, 0.01751222461462021, -0.05166129767894745, 0.0015158214373514056, 0.144668847322464], [0.040926866233348846, 0.11096689105033875, 0.3204050362110138, -0.1030714213848114, 0.11382506787776947, 0.1747967004776001, -0.15120230615139008, -0.23471032083034515, -0.19645172357559204, -0.03032032586634159, 0.028379445895552635, -0.07571312040090561, 0.24125690758228302, 0.1041233241558075, 0.13585136830806732, -0.12816448509693146, 0.057999514043331146, -0.2994737923145294, 0.27057451009750366, 0.021615687757730484, -0.01154251117259264, -0.26302871108055115, -0.0036132908426225185, -0.16407370567321777, 0.0627237930893898, -0.06507031619548798, -0.05614686384797096, -0.05000366270542145, 0.03757403790950775, -0.08115661144256592, -0.29929977655410767, -0.3408125042915344, -0.022433195263147354, 0.18120068311691284, -0.3098200857639313, -0.06524688005447388, -0.039526842534542084], [-0.06460607051849365, -0.022689608857035637, -0.07279474288225174, 0.23966503143310547, 0.11764749884605408, -0.01960141398012638, 0.025776514783501625, -0.019929084926843643, 0.07877949625253677, 0.01287788711488247, 0.034692246466875076, -0.05464297905564308, 0.22998133301734924, -0.031476572155952454, -0.024930473417043686, 0.14031128585338593, 0.02485237643122673, 0.14346744120121002, 0.0368896909058094, -0.07244626432657242, 0.06715717166662216, 0.25168395042419434, -0.10284736007452011, -0.08395378291606903, -0.028951259329915047, 0.1360330730676651, 0.09285111725330353, 0.1414419412612915, 0.008409632369875908, -0.033257145434617996, -0.32519710063934326, -0.1481543481349945, 0.30385062098503113, -0.16171680390834808, -0.08182509988546371, 0.03160705417394638, 0.005030930042266846], [-0.2606293261051178, 0.13402773439884186, -0.014304198324680328, -0.04871329292654991, 0.011500652879476547, -0.12071992456912994, -0.09618423879146576, -0.12066046893596649, -0.1569557934999466, 0.01725134626030922, -0.03796398267149925, 0.0995788499712944, -0.1749475747346878, -0.047335434705019, 0.045030198991298676, -0.009230345487594604, -0.00511012552306056, -0.16242943704128265, 0.020323658362030983, 0.04000942409038544, 0.03178195655345917, -0.031260643154382706, -0.1496237814426422, -0.18287132680416107, -0.1258532553911209, 0.10825224965810776, 0.0031100264750421047, 0.08248098194599152, -0.1800878643989563, -0.09105462580919266, -0.22410854697227478, 0.4211316406726837, -0.008886201307177544, 0.05943482369184494, -0.18863533437252045, -0.013994925655424595, 0.18627311289310455], [0.025174841284751892, 0.11810659617185593, 0.14816313982009888, -0.004609360825270414, -0.13254211843013763, 0.13705378770828247, 0.07248241454362869, 0.0014000519877299666, -0.045652881264686584, -0.07263880968093872, 0.00190601940266788, 0.1965162456035614, 0.04004933685064316, -0.20698188245296478, 0.16484878957271576, 0.0038431973662227392, -0.14477325975894928, -0.05063511058688164, 0.14455938339233398, 0.023322410881519318, -0.09701425582170486, -0.23176009953022003, -0.12002582848072052, -0.1129303053021431, -0.047185614705085754, 0.015464034862816334, 0.09172998368740082, 0.12999974191188812, -0.012880113907158375, 0.14489278197288513, -0.2733265459537506, -0.09939855337142944, -0.12156380712985992, 0.46547168493270874, 0.10583652555942535, 0.1061011403799057, -0.13688552379608154], [0.07294851541519165, -0.19054360687732697, 0.0442231148481369, -0.1558925211429596, -0.16226020455360413, -0.1393662691116333, -0.1161617636680603, -0.062240611761808395, -0.06854133307933807, -0.10235213488340378, -0.12581802904605865, -0.01740201748907566, 0.006054842844605446, 0.037570297718048096, 0.03141936659812927, -0.06531386822462082, -0.052865494042634964, 0.06132509186863899, 0.1428171545267105, -0.1219225749373436, 0.02813025563955307, 0.05628269910812378, 0.13147296011447906, -0.05240436643362045, 0.08495829254388809, 0.06000945344567299, 0.147701695561409, -0.14556752145290375, -0.15430906414985657, -0.14709047973155975, 0.396518349647522, -0.30826354026794434, 0.06664970517158508, -0.06955564022064209, 0.0446559377014637, -0.04218627139925957, 0.03359387442469597], [-0.1315610408782959, -0.1314663589000702, -0.10136120021343231, 0.15741120278835297, -0.10292030870914459, -0.006374714896082878, -0.13248951733112335, 0.19056345522403717, 0.11222338676452637, 0.052041176706552505, -4.3790529161924496e-05, -0.12013112008571625, 0.09438783675432205, -0.17563463747501373, 0.1444423347711563, -0.19495244324207306, 0.008417258970439434, 0.172371044754982, 0.021889900788664818, 0.0033995136618614197, -0.0820777490735054, 0.22439756989479065, -0.032613128423690796, -0.1768234372138977, 0.22761310636997223, -0.127661794424057, 0.04260764643549919, 0.3093067407608032, -0.21358394622802734, 0.02685585804283619, 0.08853135257959366, -0.0135283088311553, 0.020541716367006302, -0.14798873662948608, 0.00011457871733000502, -0.07208875566720963, -0.004081064835190773], [-0.12659688293933868, 0.008483483456075191, 0.12999176979064941, -0.10169773548841476, 0.22761456668376923, 0.1139884740114212, 0.042369287461042404, -0.12565240263938904, 0.054361771792173386, 0.14151985943317413, 0.2067296952009201, -0.09948717802762985, 0.21725863218307495, 0.06631547957658768, 0.07349640876054764, 0.13578733801841736, 0.23310230672359467, -0.11996949464082718, 0.1810053586959839, -0.16253812611103058, -0.009233500808477402, 0.024697814136743546, 0.05550430715084076, 0.003872436238452792, -0.02193925529718399, -0.014878076501190662, -0.06567350029945374, 0.2141289860010147, -0.020801816135644913, 0.15668970346450806, -0.1676597148180008, 0.05126354098320007, -0.29715481400489807, 0.07124640047550201, 0.059722285717725754, -0.11413069069385529, -0.13211475312709808], [-0.08547532558441162, -0.0140101732686162, -0.019040852785110474, 0.004080444574356079, -0.018751442432403564, 0.028813611716032028, -0.04975983500480652, 0.20908832550048828, 0.283358097076416, -0.056661006063222885, -0.028925642371177673, -0.08538337051868439, -0.050818394869565964, -0.06226075813174248, 0.11182495951652527, 0.03071078099310398, -0.17947986721992493, -0.03377349674701691, -0.07847291976213455, 0.2731165885925293, 0.09129813313484192, 0.012514566071331501, 0.1747322678565979, -0.03310855105519295, -0.02852465957403183, 0.03520689532160759, 0.08224216103553772, -0.301580011844635, 0.16828638315200806, 0.049424413591623306, -0.10732446610927582, 0.08297930657863617, 0.25663912296295166, -0.09355910122394562, 0.10740578919649124, -0.029340729117393494, -0.04350076615810394], [-0.03263428062200546, 0.11532112210988998, 0.0013860083417966962, 0.063612200319767, -0.10439237952232361, 0.08801266551017761, 0.08366908133029938, 0.13697341084480286, -0.06312598288059235, 0.013274010270833969, 0.1170184314250946, 0.12874473631381989, 0.18346072733402252, 0.09529010951519012, -0.03800691291689873, -0.006571417208760977, 0.04094979912042618, 0.0931539535522461, 0.24788984656333923, -0.049647144973278046, -0.11686459928750992, -0.03414013609290123, 0.0781949982047081, 0.07954812794923782, 0.12982487678527832, -0.09039418399333954, 0.11835779994726181, -0.16061189770698547, -0.008181302808225155, -0.320636123418808, -0.34393930435180664, 0.0863603800535202, -0.05665279179811478, 0.3078441321849823, 0.22549046576023102, -0.008391295559704304, 0.09442239999771118], [0.12140607088804245, -0.18081678450107574, 0.1642022728919983, 0.13204747438430786, -0.27930426597595215, -0.19573906064033508, 0.33367425203323364, 0.1030876561999321, -0.21295808255672455, 0.07413296401500702, 0.08212980628013611, -0.11557360738515854, 0.020904410630464554, 0.15065695345401764, -0.17924489080905914, 0.04149187356233597, -0.16906002163887024, 0.09077423810958862, 0.08822853118181229, -0.18413516879081726, -0.014742057770490646, 0.06967509537935257, -0.26599106192588806, -0.047998301684856415, 0.14234943687915802, -0.11397808790206909, -0.22989997267723083, 0.1054655909538269, 0.012529831379652023, 0.031120197847485542, -0.04589090496301651, -0.008671286515891552, 0.1679248809814453, 0.12206647545099258, 0.16018003225326538, -0.07957582175731659, 0.030681494623422623], [0.17921507358551025, -0.129272922873497, -0.18226109445095062, -0.2219054102897644, -0.12089411169290543, -0.23435892164707184, 0.06028972566127777, -0.017858661711215973, 0.03087475709617138, -0.22992338240146637, -0.04656737297773361, -0.0034160481300204992, -0.14368781447410583, -0.07573342323303223, -0.07695001363754272, 0.0591353140771389, 0.15347124636173248, -0.02991485968232155, -0.1752321571111679, 0.09265218675136566, -0.04694483429193497, -0.11326819658279419, 0.09811489284038544, -0.10337800532579422, -0.1145753338932991, -0.23068152368068695, 0.012659500353038311, 0.03075968660414219, 0.11360612511634827, -0.14542657136917114, -0.16314096748828888, 0.00849694013595581, 0.018072742968797684, -0.30166834592819214, 0.09023129194974899, -0.17982786893844604, -0.03819815441966057], [0.26256170868873596, 0.2887009084224701, 0.055108968168497086, 0.016979049891233444, 0.02164384163916111, 0.026049450039863586, -0.0014862719690427184, -0.04107165336608887, -0.035017482936382294, -0.13591228425502777, -0.023492317646741867, -0.043087296187877655, -0.05662208050489426, -0.19372797012329102, -0.13162171840667725, -0.0038967360742390156, -0.07066954672336578, 0.003965543583035469, -0.02228505350649357, 0.02473050355911255, 0.04254327341914177, 0.04414374753832817, 0.08425353467464447, -0.00512454891577363, 0.0032602481078356504, 0.03652377799153328, 0.05536655709147453, 0.028248270973563194, -0.036748554557561874, 0.015142284333705902, -0.13623051345348358, -0.04891504719853401, 0.11685093492269516, -0.2012178897857666, -0.2526073753833771, -0.12028216570615768, 0.22245578467845917], [0.21369101107120514, -0.0020778337493538857, 0.20546387135982513, 0.08677154779434204, -0.1491459161043167, 0.09601700305938721, 0.14876724779605865, 0.16362370550632477, 0.05830102041363716, 0.20168326795101166, -0.039356350898742676, 0.13136018812656403, -0.27056723833084106, 0.00022806967899668962, -0.10960458964109421, 0.09865173697471619, 0.048581697046756744, -0.2053842544555664, -0.0014902561670169234, -0.07451898604631424, 0.007645086385309696, 0.004025265108793974, -0.03644324839115143, 0.03436937928199768, 0.05681693181395531, 0.08517012000083923, 0.22821958363056183, -0.06292911618947983, 0.16387803852558136, -0.09989043325185776, -0.3776477873325348, 0.044192634522914886, -0.23921629786491394, 0.007428041193634272, 0.07595570385456085, -0.10202673822641373, -0.03869524598121643], [-0.16904640197753906, -0.14034628868103027, -0.2635654807090759, -0.07842767238616943, -0.1306096762418747, 0.1379099190235138, 0.16037918627262115, -0.09350252896547318, -0.052180513739585876, 0.05083406716585159, 0.003367567900568247, 0.07780054956674576, 0.0013234541984274983, 0.09431622177362442, 0.07572770863771439, 0.14078840613365173, -0.0003324233985040337, -0.0930408239364624, 0.14890259504318237, -0.028936132788658142, 0.13544300198554993, -0.12541121244430542, -0.06758240610361099, -0.12273924797773361, 0.07275201380252838, 0.07762585580348969, -0.01878664270043373, 0.16879011690616608, -0.14925792813301086, -0.07853477448225021, 0.18812359869480133, 0.18670856952667236, -0.07445856183767319, 0.0816841870546341, -0.052540477365255356, 0.011884074658155441, 0.07957722246646881], [-0.36378997564315796, -0.30431076884269714, -0.41027623414993286, -0.15167640149593353, 0.035129114985466, -0.052311502397060394, -0.0006912611424922943, -0.007156265899538994, -0.11501861363649368, 0.009359304793179035, 0.166386216878891, 0.0749635100364685, 0.046743690967559814, 0.10544926673173904, 0.12949518859386444, 0.22571560740470886, -0.08405058830976486, -0.04500805214047432, 0.06654069572687149, 0.03003700263798237, 0.0010473866714164615, -0.022506223991513252, 0.05829235538840294, 0.06928782165050507, 0.004685834050178528, 0.1633051186800003, 0.14027957618236542, -0.07748923450708389, 0.020703081041574478, 0.1113051250576973, 0.1882585883140564, 0.006762360688298941, 0.09228403121232986, 0.08706372231245041, 0.004388136323541403, 0.00787749607115984, -0.01835084892809391], [-0.05384531989693642, -0.03459225967526436, -0.11902455985546112, -0.18301866948604584, -0.07687529176473618, -0.05300915241241455, -0.014419891871511936, 0.13239987194538116, 0.012974265031516552, 0.12064267694950104, -0.17843452095985413, -0.22887548804283142, -0.2219112515449524, -0.21437302231788635, -0.2382817566394806, -0.1995423138141632, -0.08932441473007202, 0.12104429304599762, 0.1779608279466629, 0.1987585425376892, 0.33393004536628723, 0.11967172473669052, 0.20293405652046204, 0.029712609946727753, 0.19101084768772125, -0.0018746083369478583, 0.04411241412162781, 0.05783184617757797, -0.02199336513876915, 0.023910660296678543, -0.15823927521705627, 0.024590913206338882, 0.014880798757076263, 0.019854236394166946, 0.07320717722177505, 0.10517573356628418, 0.15364022552967072], [0.07880452275276184, 0.1959114521741867, 0.0642203837633133, 0.25901105999946594, 0.09792156517505646, 0.003595828777179122, 0.06102048605680466, 0.05809338763356209, -0.13439355790615082, 0.09826657921075821, 0.12200569361448288, 0.031053489074110985, -0.16525553166866302, 0.19455485045909882, 0.1756565123796463, -0.01833195984363556, 0.020325930789113045, 0.10730554163455963, -0.033217888325452805, 0.01625034585595131, 0.03797832503914833, -0.04838244616985321, -0.0939110815525055, 0.005282970145344734, 0.11478595435619354, -0.05220261588692665, 0.23490722477436066, 0.15339869260787964, 0.02794785238802433, -0.15624484419822693, 0.1503952443599701, -0.16773748397827148, 0.17603446543216705, 0.2102465033531189, 0.05242842063307762, 0.09137474000453949, -0.008930106647312641], [0.44030511379241943, -0.11657694727182388, -0.06752734631299973, -0.1393178105354309, -0.07995320111513138, -0.006349275354295969, 0.06016463413834572, 0.1693696677684784, 0.11249818652868271, -0.03205205872654915, -0.053933270275592804, -0.142570361495018, 0.03829364478588104, 0.003224422223865986, -0.08477844297885895, -0.10260438919067383, -0.04340777173638344, -0.05539194494485855, 0.01025795005261898, -0.0418262779712677, -0.09496404230594635, 0.07889598608016968, -0.011015369556844234, -0.04073711112141609, 0.02651209384202957, 0.03961580619215965, -0.0960719883441925, 0.13384465873241425, -0.012143120169639587, -0.18804918229579926, -0.1542811244726181, 0.056509096175432205, -0.03128322213888168, 0.0794815942645073, -0.20173253118991852, 0.11787841469049454, -0.08656855672597885], [0.13960811495780945, -0.017947576940059662, 0.05599862337112427, 0.16069164872169495, -0.21599218249320984, -0.20474360883235931, -0.19891169667243958, -0.22824275493621826, -0.19746823608875275, -0.19821685552597046, 0.002377816941589117, -0.10408806800842285, -0.002962133614346385, 0.045965082943439484, 0.1445104032754898, 0.016922732815146446, 0.004122192971408367, 0.013189746998250484, 0.19604945182800293, 0.04528447240591049, 0.14159972965717316, 0.097336545586586, 0.05833934247493744, 0.10559675842523575, 0.009659790433943272, 0.027601512148976326, 0.001911603263579309, 0.14382344484329224, 0.08770374953746796, -0.08108802139759064, -0.13565701246261597, -0.16988278925418854, -0.14021608233451843, 0.21354544162750244, -0.35093969106674194, 0.08176162093877792, -0.14233992993831635], [0.2018120288848877, 0.12147964537143707, 0.27999719977378845, -0.09090854227542877, -0.10055777430534363, 0.021721631288528442, -0.29507872462272644, -0.22040216624736786, -0.2211712896823883, -0.08870257437229156, -0.04170793294906616, -0.023591436445713043, -0.07489275187253952, -0.05873226374387741, 0.06185579672455788, 0.02729811519384384, 0.0212668776512146, -0.062333401292562485, 0.23797985911369324, -0.05413731932640076, 0.14120875298976898, -0.06273508071899414, -0.13022102415561676, -0.14231173694133759, 0.12491197884082794, -0.13271942734718323, 0.18960240483283997, -0.033212579786777496, -0.18266375362873077, -0.040411222726106644, 0.009482957422733307, 0.04019938409328461, 0.11530974507331848, -0.012856530025601387, -0.1640976220369339, 0.03467079624533653, -0.11603853851556778], [0.0017552128992974758, -0.134071946144104, -0.051265399903059006, -0.13025373220443726, -0.14601825177669525, -0.21740604937076569, -0.12078302353620529, -0.12070553749799728, 0.0013864422217011452, 0.03961435705423355, 0.19218285381793976, 0.10156511515378952, 0.08034949004650116, 0.16009879112243652, 0.18500596284866333, 0.1366519033908844, 0.18998657166957855, 0.18643765151500702, 0.24746452271938324, 0.20273736119270325, 0.02414681203663349, -0.009161664173007011, -0.027614939957857132, -0.07540146261453629, -0.08217880129814148, 0.01782277598977089, -0.018188394606113434, 0.06820544600486755, -0.040557656437158585, 0.0061556072905659676, -0.15980970859527588, -0.03485859930515289, -0.060953106731176376, -0.13287781178951263, -0.16542065143585205, -0.05730264261364937, 0.03887402266263962], [0.06675240397453308, -0.12299696356058121, 0.17074798047542572, 0.06921921670436859, 0.08632805943489075, -0.06663883477449417, -0.058818913996219635, 0.033743955194950104, 0.1701383888721466, 0.025098860263824463, -0.12797434628009796, -0.014511101879179478, 0.10801158100366592, -0.03711869940161705, 0.027429575100541115, -0.18723075091838837, 0.023633992299437523, -0.19789832830429077, -0.08712742477655411, 0.08352290093898773, -0.2119186818599701, -0.2784411311149597, -0.1076587587594986, 0.05399315431714058, 0.22025613486766815, -0.1743372529745102, 0.017305266112089157, -0.1018817201256752, 0.03674273565411568, -0.05256134644150734, -0.049360983073711395, -0.0160153117030859, -0.21017387509346008, -0.039372242987155914, 0.11003582924604416, -0.10368690639734268, -0.08862052857875824], [0.19522874057292938, 0.15623629093170166, 0.18175077438354492, -0.0416131354868412, 0.08127541095018387, 0.0970558375120163, 0.08352452516555786, 0.03421548753976822, 0.033872831612825394, 0.03594860062003136, 0.058128613978624344, 0.16669954359531403, 0.06386354565620422, -0.06658117473125458, 0.21774554252624512, 0.13802476227283478, -0.025566348806023598, 0.19872786104679108, -0.09785665571689606, 0.1308041512966156, 0.14489999413490295, -0.154802605509758, -0.19322922825813293, -0.11384115368127823, 0.006832066457718611, -0.19447162747383118, -0.12191466987133026, 0.0073747034184634686, 0.30427131056785583, 0.08701877295970917, 0.14012129604816437, -0.009062498807907104, -0.12425411492586136, -0.13261328637599945, -0.026746684685349464, 0.15615500509738922, 0.2062385082244873], [0.04168391600251198, -0.0552118681371212, -0.010142294690012932, -0.15567763149738312, 0.23890312016010284, 0.12804538011550903, -0.10184618830680847, -0.03672172501683235, -0.09209294617176056, -0.04446502402424812, 0.026070598512887955, 0.07350645214319229, -0.08629024773836136, -0.05831768363714218, -0.06901548057794571, -0.26291710138320923, -0.2562890946865082, 0.08153880387544632, -0.005949612706899643, -0.10581664741039276, 0.012093611992895603, -0.10214681923389435, 0.09992733597755432, -0.13425885140895844, -0.08802901953458786, -0.07716362178325653, 0.07938753068447113, -0.054380595684051514, -0.042341046035289764, 0.10297052562236786, -0.13031840324401855, -0.01571929268538952, 0.13254253566265106, -0.012916208244860172, 0.04954351484775543, -0.13121867179870605, -0.14975251257419586], [0.056503672152757645, -0.18365991115570068, 0.1042630597949028, -0.03249932453036308, -0.20479631423950195, -0.11294932663440704, -0.017246685922145844, -0.017114421352744102, 0.06386164575815201, 0.09603143483400345, 0.12732131779193878, 0.30562376976013184, 0.11365880817174911, 0.05091698095202446, -0.1456114798784256, -0.13317157328128815, -0.06645413488149643, -0.08132334053516388, 0.008157817646861076, 0.004504836164414883, -0.0076772598549723625, 0.1919412612915039, 0.06374847143888474, 0.05112021043896675, -0.10083149373531342, 0.08348590135574341, -0.0788935124874115, -0.061118319630622864, 0.07267682254314423, -0.027209242805838585, -0.2534475028514862, -0.03540091589093208, -0.023686109110713005, 0.21366338431835175, -0.10517480969429016, 0.1115221157670021, -0.056027695536613464], [0.0695623978972435, -0.014189885929226875, -0.0825667455792427, 0.10099317878484726, -0.020545370876789093, 0.027700131759047508, -0.1095089539885521, -0.12928910553455353, -0.11633366346359253, 0.13395565748214722, 0.11600928753614426, -0.11558952927589417, 0.17684146761894226, 0.13428299129009247, -0.1696709245443344, 0.20831038057804108, 0.08375253528356552, 0.02143922634422779, 0.16704519093036652, 0.1631685197353363, 0.0029728617519140244, 0.12155993282794952, 0.020944727584719658, -0.07474977523088455, -0.1885799765586853, 0.02171957865357399, -0.1770883947610855, 0.15624816715717316, -0.03885482996702194, -0.07512438297271729, -0.28228887915611267, -0.13916823267936707, 0.42948317527770996, -0.0012786779552698135, 0.07384436577558517, -0.04761292412877083, -0.23131974041461945], [0.03688077628612518, 0.18970315158367157, 0.01670263707637787, -0.10019237548112869, -0.1178239956498146, -0.16238446533679962, -0.03652685880661011, -0.060161955654621124, -0.07029468566179276, 0.04360012710094452, -0.1116536483168602, -0.043013475835323334, -0.10673180967569351, 0.03551502898335457, -0.1369551569223404, -0.010783608071506023, 0.07140543311834335, 0.25658127665519714, 0.16452763974666595, -0.10201556235551834, -0.07714074105024338, -0.054907817393541336, 0.20949482917785645, 0.0747300535440445, 0.1761167198419571, 0.23474135994911194, 0.06965244561433792, 0.09582319855690002, 0.23050424456596375, -0.023264555260539055, 0.12060210108757019, -0.00836749654263258, -0.0029259738512337208, -0.32900920510292053, -0.22307416796684265, -0.011676110327243805, -0.04433343559503555], [0.04198046773672104, 0.08442408591508865, 0.13814568519592285, -0.01879618875682354, 0.1261754184961319, 0.10677178204059601, -0.09834890067577362, -0.04959375783801079, -0.03648188337683678, -0.09080836921930313, -0.2960437536239624, -0.11567261070013046, 0.07826125621795654, -0.15589477121829987, 0.10513858497142792, 0.07323160022497177, 0.16022321581840515, -0.05621249973773956, 0.11282868683338165, 0.10002493858337402, 0.09186605364084244, 0.12500359117984772, 0.03340916335582733, -0.19510193169116974, 0.16247597336769104, -0.004471794236451387, -0.05681697279214859, -0.010396353900432587, -0.1313866823911667, 0.009015253745019436, -0.35873863101005554, 0.03226262703537941, -0.2919018268585205, 0.05536786466836929, 0.18856343626976013, 0.03542429953813553, 0.23021836578845978], [0.0498652383685112, 0.07835019379854202, -0.05187971517443657, 0.029217425733804703, -0.04750629886984825, -0.1257632076740265, 0.13045479357242584, 2.7652899916574825e-06, -0.006391724571585655, 0.033736277371644974, 0.1484917551279068, -0.04640967771410942, 0.03001263551414013, -0.19739148020744324, -0.11824239045381546, -0.12427014112472534, -0.06241519749164581, 0.12409144639968872, -0.04644032567739487, -0.07886547595262527, -0.10565480589866638, -0.01862742379307747, 0.09047430753707886, 0.033509332686662674, -0.2242375910282135, -0.3655065894126892, -0.2877531349658966, -0.04997356981039047, 0.08884209394454956, -0.08331339061260223, 0.1575501412153244, 0.04145514965057373, 0.041831016540527344, -0.30810433626174927, -0.09231477975845337, -0.12657229602336884, 0.06749537587165833], [-0.07408490777015686, 0.0242866612970829, 0.04620130732655525, -0.012274992652237415, -0.004352182149887085, -0.18989352881908417, -0.09590595960617065, -0.167446106672287, -0.05570603162050247, 0.015785550698637962, -0.05382326990365982, -0.03907998278737068, 0.011115559376776218, 0.019122052937746048, -0.09636647999286652, -0.1559365689754486, -0.17293046414852142, -0.21778081357479095, 0.10411495715379715, -0.171451598405838, -0.057379771023988724, 0.11297255009412766, -0.017785372212529182, 0.05316797271370888, 0.1818726509809494, 0.004618736915290356, 0.10942918062210083, -0.03401871770620346, -0.19669175148010254, -0.259620726108551, 0.01220620796084404, -0.009689971804618835, 0.06793095171451569, 0.1666865348815918, -0.2679532766342163, -0.09103643149137497, -0.027174288406968117], [-0.11651013791561127, -0.08250696212053299, -0.26135116815567017, -0.048867542296648026, 0.02433992736041546, -0.019951341673731804, -0.12660856544971466, -0.03044266067445278, 0.013679522089660168, -0.027366548776626587, -0.050778452306985855, 0.03290925547480583, 0.17212295532226562, 0.0017850021831691265, -0.059996314346790314, -0.05154101923108101, 0.19055521488189697, 0.05678023397922516, -0.23150242865085602, -0.19211524724960327, 0.13211244344711304, -0.0085526118054986, 0.13658159971237183, -0.0793396458029747, -0.18121860921382904, -0.16191792488098145, -0.160994753241539, 0.007735967170447111, -0.009885508567094803, 0.15474335849285126, 0.05982987582683563, 0.012925674207508564, -0.3406912684440613, 0.08535439521074295, -0.013016167096793652, -0.097807876765728, -0.14744655787944794], [-0.08280614763498306, 0.16022540628910065, 0.009611577726900578, -0.03418922424316406, 0.15619876980781555, -0.16354985535144806, -0.0016598543152213097, 0.09820901602506638, -0.18416465818881989, 0.1422935575246811, -0.06301821768283844, -0.011165054515004158, -0.021427834406495094, 0.1209883987903595, -0.1390644758939743, -0.14375483989715576, 0.2746545374393463, -0.18615710735321045, -0.025179993361234665, -0.05274868756532669, -0.0013601055834442377, 0.20570330321788788, -0.06220655515789986, -0.10738358646631241, 0.04810087010264397, 0.08956943452358246, 0.03956224396824837, -0.18228283524513245, 0.13051822781562805, -0.021850891411304474, -0.0038289485964924097, -0.004530076868832111, 0.043464794754981995, 0.08872636407613754, -0.00848097912967205, 0.12488710135221481, -0.039805296808481216], [0.024254342541098595, 0.12745696306228638, 0.04059344902634621, 0.01664326898753643, 0.029492158442735672, 0.14460115134716034, 0.04477823153138161, 0.08366082608699799, 0.06826915591955185, 0.030504532158374786, 0.14533604681491852, 0.1539795845746994, 0.07298806309700012, 0.15816253423690796, 0.3123527467250824, 0.08086402714252472, 0.003111091675236821, 0.19705606997013092, -0.013190568424761295, 0.17841310799121857, 0.09867675602436066, 0.17511828243732452, 0.07252825051546097, -0.04331936687231064, 0.14521637558937073, -0.09912603348493576, 0.07002099603414536, 0.1004122868180275, -0.12890000641345978, -0.053129177540540695, -0.06268691271543503, -0.03822270408272743, -0.21236909925937653, 0.36265742778778076, 0.03238716349005699, 0.12934118509292603, 0.2102254182100296], [0.0016847415827214718, 0.010771933011710644, 0.13690505921840668, -0.21860310435295105, 0.3485683798789978, -0.18912392854690552, -0.14344727993011475, -0.15899226069450378, 0.28102076053619385, 0.0902203917503357, 0.05550508573651314, 0.19490772485733032, -0.15764403343200684, 0.02140078879892826, -0.048743776977062225, 0.0037166322581470013, -0.06933174282312393, 0.2632412314414978, 0.23088090121746063, -0.17345917224884033, -0.13264822959899902, -0.1401977241039276, 0.17779292166233063, 0.14052130281925201, 0.009387490339577198, -0.08220618218183517, -0.21512413024902344, 0.019715748727321625, 0.08043373376131058, -0.03689819574356079, -0.010003079660236835, -0.013057178817689419, 0.23373916745185852, -0.017524896189570427, -0.10977566987276077, -0.0011539440602064133, -0.012509448453783989], [-0.2152116298675537, 0.013879968784749508, 0.018721312284469604, -0.12698589265346527, 0.021295418962836266, -0.2196245938539505, -0.2173977494239807, -0.1301734298467636, -0.03223192319273949, -0.13737736642360687, -0.024836961179971695, 0.07416902482509613, -0.09263139218091965, -0.06213011592626572, -0.0648803859949112, -0.04407668113708496, 0.08998437970876694, 0.05111204460263252, -0.1544034332036972, -0.12771974503993988, -0.05361779406666756, -0.2876051366329193, -0.005763839930295944, -0.01989864371716976, 0.142825186252594, 0.14052067697048187, -0.053093791007995605, -0.08083625137805939, 0.2368825078010559, 0.09155546128749847, 0.07582762837409973, -0.03193577378988266, 0.1831783801317215, -0.07432828843593597, -0.18439136445522308, -0.07776915282011032, 0.11394497007131577], [0.2486213594675064, 0.11975093185901642, 0.019057391211390495, 0.04168887063860893, -0.21204407513141632, -0.11227648705244064, -0.024004986509680748, 0.0502755343914032, 0.07727521657943726, -0.03685643896460533, -0.04460718110203743, -0.1268886923789978, -0.05152338743209839, -0.1926359236240387, 0.16025236248970032, -0.08709607273340225, 0.04124123230576515, 0.0266696996986866, -0.12498127669095993, -0.13751447200775146, -0.06280267983675003, -0.15377910435199738, 0.06862863153219223, -0.010768403299152851, 0.12859408557415009, -0.16422119736671448, -0.046078186482191086, -0.0092103136703372, 0.007098296657204628, 0.005181557033210993, -0.33048567175865173, -0.13252443075180054, -0.0627838671207428, -0.07779821008443832, -0.04695092886686325, 0.050324805080890656, -0.13630475103855133], [-0.060231149196624756, 0.056810442358255386, -0.0707789808511734, 0.045883383601903915, -0.020382745191454887, 0.08619972318410873, 0.05516811087727547, 0.07329683750867844, -0.1372372806072235, -0.06783674657344818, -0.2289087027311325, 0.09325788915157318, 0.12792882323265076, -0.030919278040528297, 0.15985479950904846, 0.09033095091581345, -0.05430234223604202, -0.0184466689825058, -0.14073048532009125, -0.1648981124162674, -0.19978320598602295, -0.017329251393675804, -0.2593652307987213, -0.10189255326986313, -0.18958377838134766, -0.257252961397171, 0.009915031492710114, -0.03177694231271744, -0.15023499727249146, 0.09245090186595917, -0.13792932033538818, 0.1026047021150589, 0.07102222740650177, 0.22103816270828247, -0.07040565460920334, -0.1453142911195755, -0.21297219395637512], [0.05040962994098663, 0.10709141939878464, 0.1486353725194931, 0.021348407492041588, -0.20194730162620544, -0.11105873435735703, -0.05826210230588913, 0.01145827304571867, -0.08190488815307617, -0.130655437707901, -0.034785304218530655, -0.21040548384189606, -0.2017962485551834, -0.14838704466819763, -0.13501589000225067, 0.13372287154197693, 0.01953277550637722, -0.039023257791996, -0.0965476781129837, -0.060074854642152786, -0.1449890285730362, -0.1325245499610901, -0.09589678794145584, -0.0680072158575058, 0.06355705112218857, -0.14338400959968567, 0.012632329016923904, -0.05887177586555481, 0.204694002866745, 0.17311230301856995, 0.23055259883403778, 0.15180088579654694, -0.003983840346336365, -0.019666384905576706, -0.27094894647598267, -0.09217201173305511, -0.04815374314785004], [-0.1425686627626419, -0.13461628556251526, -0.1468508243560791, -0.021516475826501846, -0.18785536289215088, 0.03505035117268562, -0.036789968609809875, 0.04701259359717369, 0.07526066899299622, 0.08208534121513367, -0.02277950756251812, -0.04592550918459892, 0.03335066884756088, 0.033194828778505325, 0.059268318116664886, 0.0075035314075648785, 0.08159386366605759, 0.017699599266052246, 0.0284451711922884, -0.04200659692287445, 0.11668886244297028, 0.024510027840733528, 0.13807067275047302, -0.1142195463180542, 0.027863528579473495, 0.08675099909305573, 0.00934591144323349, -0.04106792062520981, 0.08452188968658447, 0.022935900837183, -0.5229453444480896, 0.07215999811887741, -0.2326643466949463, 0.29878658056259155, 0.12300796061754227, 0.04024064168334007, 0.09280945360660553]], "b": [0.09130220860242844, 0.3067439794540405, 0.27099689841270447, 0.005942231509834528, -0.10243180394172668, 0.11134669184684753, 0.0429328978061676, 0.1303413212299347, -0.05914308875799179, 0.1956731528043747, -0.008103590458631516, 0.08637703210115433, -0.11313788592815399, 0.11449748277664185, -0.07575558125972748, -0.04716230556368828, -0.01052741426974535, 0.2652050256729126, 0.07869896292686462, -0.143734872341156, -0.027693431824445724, -0.07381223142147064, 0.03400290012359619, -0.028769565746188164, 0.008604723960161209, -0.5997559428215027, -0.09121286123991013, -0.12940095365047455, 0.034115955233573914, 0.09135260432958603, -0.008534863591194153, -0.1300792396068573, 0.015688741579651833, -0.11479543149471283, 0.06319170445203781, 0.1966203898191452, 0.04917953535914421, -0.007244065869599581, 0.22043131291866302, -0.012607180513441563, -0.1567613184452057, 0.004257827531546354, -0.23670288920402527, 0.15300321578979492, 0.2545924484729767, 0.32151201367378235, -0.09409300982952118, 0.0682268887758255, -0.18362188339233398, 0.2680491805076599, 0.09374316781759262, 0.06477654725313187, -0.04980027303099632, -0.09658832103013992, 0.08573911339044571, 0.13195644319057465, 0.09240078926086426, 0.0804314836859703, 0.0726790726184845, 0.01951378770172596, 0.0915917232632637, 0.035578127950429916, 0.06407932192087173, -0.07337498664855957], "act": "relu"}, {"W": [[-0.01168542355298996, 0.03255503624677658, -0.01078565139323473, 0.034959521144628525, -0.05375130847096443, 0.21600569784641266, 0.1530655026435852, -0.2017141878604889, -0.08160299807786942, 0.046940941363573074, 0.09959179908037186, -0.08336129039525986, -0.060177240520715714, -0.14190509915351868, 0.09178002923727036, 0.1237678974866867, 0.0016778797144070268, 0.05246992036700249, 0.04221305251121521, 0.18648751080036163, 0.025006094947457314, 0.10637785494327545, -0.059478871524333954, -0.05586736649274826, -0.0568159818649292, 0.027333559468388557, 0.1190512403845787, -0.13846679031848907, -0.06463319808244705, 0.017989354208111763, 0.18216244876384735, 0.09374068677425385, 0.06696366518735886, -0.1753576397895813, 0.15626108646392822, -0.0462050624191761, 0.060090526938438416, -0.1695316731929779, -0.13662296533584595, -0.1777743399143219, -0.2104649841785431, 0.07417602092027664, -0.18488067388534546, -0.20777449011802673, 0.20577941834926605, -0.06476421654224396, 0.021419206634163857, -0.07028458267450333, -0.03206414729356766, -0.0531475767493248, 0.10464226454496384, -0.009045585989952087, -0.17578831315040588, -0.08639352023601532, -0.026395166292786598, 0.12094015628099442, 0.10991475731134415, 0.04726524278521538, 0.14243923127651215, 0.1626778095960617, 0.010887252166867256, -0.07853680104017258, -0.08611191064119339, -0.046214815229177475], [0.006312246900051832, 0.20960593223571777, 0.11055100709199905, -0.09209294617176056, 0.019086021929979324, -0.009037782438099384, -0.012087984941899776, -0.008463344536721706, -0.15745823085308075, -0.06982476264238358, -0.2838329076766968, -0.12463267147541046, -0.04721016436815262, -0.0521850548684597, -0.053906042128801346, 0.09233973920345306, -0.04495074972510338, 0.16100910305976868, 0.1601671576499939, 0.0629408210515976, -0.03169715404510498, 0.006685872096568346, 0.08551415055990219, 0.013927159830927849, 0.12122546136379242, -0.030630791559815407, -0.15177147090435028, 0.06583446264266968, -0.01429701503366232, 0.15847748517990112, -0.09782199561595917, 0.04038809984922409, 0.11392659693956375, 0.07450941950082779, -0.048103004693984985, -0.10538645833730698, 0.0066542173735797405, -0.1142660528421402, 0.10859889537096024, -0.11603016406297684, -0.24908916652202606, 0.02594865672290325, 0.1573466658592224, -0.03271957486867905, 0.10743247717618942, -0.19620276987552643, -0.07169169187545776, 0.13320539891719818, -0.0013880766928195953, -0.10104857385158539, -0.19474725425243378, 0.03398924693465233, -0.09943415969610214, 0.0240771621465683, 0.06753189116716385, -0.023597046732902527, 0.0943349078297615, -0.10686434805393219, 0.1476932018995285, -0.021532518789172173, 0.05785401165485382, 0.09582079946994781, 0.06288506090641022, -0.14089122414588928], [-0.017793558537960052, 0.08754201233386993, 0.09966573119163513, -0.11452019959688187, 0.06787360459566116, 0.19460099935531616, 0.10586656630039215, 0.1206795871257782, -0.0006480802549049258, -0.05196474865078926, -0.042946767061948776, 0.07931357622146606, 0.014749632216989994, 0.10367728024721146, 0.10485175997018814, 0.055612679570913315, -0.08551094681024551, 0.1332702487707138, -0.039446696639060974, 0.261711448431015, -0.046809714287519455, 0.17990301549434662, 0.19144274294376373, -0.03659960627555847, -0.06632255017757416, -0.16624581813812256, 0.03657206520438194, -0.13196790218353271, 0.19746512174606323, -0.13166764378547668, 0.00966420117765665, 0.04086532071232796, 0.1110847219824791, 0.02050318941473961, 0.12772707641124725, -0.20781569182872772, 0.022451508790254593, 0.0971110537648201, 0.14125889539718628, -0.03951199725270271, -0.17357507348060608, -0.018710460513830185, -0.05278138816356659, 0.03975284472107887, -0.01765446737408638, 0.01571589708328247, 0.07632172107696533, 0.022183435037732124, -0.14134785532951355, -0.007267925422638655, 0.17888197302818298, 0.0006611339631490409, 0.04285971820354462, -0.6711953282356262, -0.18378612399101257, 0.05881684646010399, 0.1557517796754837, 0.09387096017599106, 0.08135738968849182, -0.3994849622249603, -0.15090033411979675, -0.2397453337907791, -0.276879221200943, 0.03798891603946686], [-0.20484720170497894, 0.38293758034706116, -0.05487483739852905, 0.10807079076766968, -0.20711293816566467, -0.23385024070739746, 0.05239799618721008, -0.0964362621307373, 0.09686646610498428, 0.10224851965904236, -0.0964442566037178, -0.2855503261089325, 0.19186797738075256, 0.024380533024668694, -0.05603036656975746, 0.14974646270275116, -0.030993683263659477, -0.023766860365867615, 0.016406914219260216, -0.12370315939188004, -0.014763577841222286, -0.01758628711104393, 0.0370156355202198, -0.2451155185699463, 0.15128786861896515, -0.03231704980134964, 0.143468976020813, 0.02447018213570118, 0.2704944312572479, -0.18727412819862366, -0.17673708498477936, -0.30737099051475525, 0.16283585131168365, -0.007155128289014101, 0.06656242907047272, -0.013834821060299873, 0.052443329244852066, 0.08709292113780975, -0.2998637557029724, -0.010469950735569, 0.14749528467655182, -0.06568024307489395, -0.20075814425945282, 0.15589861571788788, -0.13025671243667603, -0.10585170239210129, 0.09908220916986465, 0.0312162134796381, -0.01983639970421791, -0.1357695758342743, -0.15965445339679718, -0.010822742246091366, 0.22178113460540771, -0.004185558762401342, 0.15197904407978058, -0.19078481197357178, 0.19218002259731293, -0.010714161209762096, 0.05389830097556114, -0.07224912941455841, 0.06257624924182892, 0.1831958293914795, -0.08496086299419403, -0.004197570029646158], [-0.17695161700248718, -0.04133057966828346, 0.13611987233161926, 0.13312125205993652, -0.011102699674665928, -0.04653517156839371, 0.18341220915317535, 0.06627766788005829, 0.042117275297641754, -0.08910196274518967, -0.006068284157663584, -0.16230608522891998, 0.13781245052814484, -0.05747593939304352, -0.09381900727748871, 0.03390112891793251, -0.06153161823749542, 0.08177892118692398, 0.01915290392935276, -0.028793510049581528, 0.021822990849614143, -0.0019509976264089346, 0.05663944408297539, -0.16358354687690735, -0.013861064799129963, 0.19140614569187164, 0.10229039192199707, 0.06995721161365509, 0.07710620015859604, 0.1751827597618103, 0.05193109065294266, -0.015528351999819279, 0.002278195461258292, 0.07816632837057114, 0.09711464494466782, -0.1234271302819252, 0.07509634643793106, -0.08152781426906586, 0.10725773870944977, -0.17109903693199158, -0.033901505172252655, -0.048284247517585754, 0.07900241017341614, 0.09516729414463043, -0.02901034988462925, -0.011567231267690659, 0.07263807952404022, -0.1500222235918045, 0.15713316202163696, 0.10227927565574646, 0.04584295302629471, 0.10901950299739838, -0.041151054203510284, 0.04230943322181702, -0.007462778128683567, 0.070499949157238, 0.016875652596354485, -0.008072505705058575, -0.25670722126960754, 0.11003834754228592, -0.037419725209474564, 0.15183250606060028, 0.1586671620607376, -0.010541200637817383], [0.15887048840522766, 0.006970713380724192, 0.00612265057861805, 0.0275105070322752, 0.24197663366794586, 0.36724990606307983, -0.19047169387340546, -0.06809171289205551, -0.009340278804302216, 0.0864560529589653, -0.5004647374153137, 0.44800716638565063, -0.28352856636047363, -0.2614094018936157, -0.12297749519348145, 0.08648587018251419, -0.2684559226036072, -0.07238210737705231, -0.09319756925106049, 0.16450592875480652, -0.5018507242202759, 0.02145940437912941, 0.22753722965717316, -0.01566172204911709, -0.09359554201364517, 0.17250584065914154, -0.12308914959430695, -0.05956321209669113, -0.13651862740516663, -0.08997759968042374, 0.03253326565027237, -0.11865253746509552, 0.20872464776039124, 0.01302907895296812, -0.02760600857436657, 0.09862881898880005, 0.3112204372882843, -0.2066306322813034, -0.31255123019218445, -0.20781749486923218, -0.6233066320419312, -0.20443469285964966, 0.0496976375579834, -0.08588607609272003, 0.16532054543495178, -0.11739818751811981, 0.061911262571811676, 0.018419276922941208, 0.027309084311127663, 0.05921986326575279, 0.05164027214050293, -0.5773531198501587, -0.12970076501369476, -0.07609617710113525, 0.09088873863220215, -0.06419549882411957, 0.08731026947498322, 0.021262124180793762, -0.04955049976706505, 0.083058200776577, 0.03354278579354286, 0.01772996596992016, 0.050058938562870026, -0.14027747511863708], [0.10061310231685638, -0.0537651851773262, -0.03897472470998764, 0.13410256803035736, 0.027160918340086937, -0.10906384885311127, 0.1063961535692215, 0.06702764332294464, -0.087378591299057, 0.015513253398239613, 0.06803914159536362, 0.024229004979133606, 0.15597233176231384, -0.07432521134614944, 0.07576923817396164, -0.024427002295851707, -0.0019451560219749808, 0.13139651715755463, -0.06898043304681778, -0.015148854814469814, 0.054527029395103455, -0.006477678194642067, -0.025609713047742844, 0.03653790056705475, 0.13889789581298828, -0.044430192559957504, 0.09726158529520035, 0.11823222786188126, 0.0855637788772583, -0.05357181280851364, 0.1088922843337059, 0.0528838075697422, 0.031989678740501404, 0.09438871592283249, -0.1352679431438446, 0.10562469810247421, 0.0803811326622963, 0.011417737230658531, 0.03834914788603783, 0.09156214445829391, 0.03620073199272156, -0.08108740299940109, -0.12790007889270782, 0.05269699916243553, -0.05170580744743347, -0.07138973474502563, 0.13267885148525238, 0.03061336651444435, -0.02515888400375843, 0.07151033729314804, 0.06019066646695137, -0.04619390517473221, 0.09274254739284515, 0.033925194293260574, 0.08503437042236328, 0.1280290186405182, 0.1150677502155304, 0.08848156034946442, 0.04814129322767258, 0.02735394798219204, 0.09071605652570724, 0.0575222410261631, -0.019033998250961304, 0.05944501608610153], [-0.052490174770355225, -0.027831315994262695, 0.05233506113290787, -0.36697614192962646, -0.13204210996627808, 0.2664848864078522, -0.054663024842739105, -0.15933559834957123, -0.11441546678543091, 0.036239005625247955, -0.31309744715690613, -0.10213391482830048, -0.08227188140153885, 0.014774620532989502, 0.02204623632133007, -0.06616589426994324, 0.22582466900348663, 0.06052748113870621, 0.14981260895729065, -0.08300191164016724, 0.024221526458859444, -0.2019939124584198, -0.015566396526992321, 0.04337937384843826, -0.1011216938495636, 0.2772098481655121, -0.17257069051265717, -0.07828757911920547, 0.10736652463674545, 0.06453709304332733, -0.10259948670864105, 0.03741766884922981, -0.04791565611958504, -0.07374861091375351, -0.101140595972538, -0.07162368297576904, -0.14484339952468872, 0.1055912971496582, 0.13737240433692932, 0.029121344909071922, 0.045271821320056915, 0.04401527717709541, -0.06464595347642899, 0.4875941276550293, -0.22819064557552338, -0.07102282345294952, -0.06475483626127243, 0.04848506301641464, 0.06573166698217392, 0.10909157991409302, -0.06293436139822006, -0.37774765491485596, -0.17277181148529053, 0.017708856612443924, -0.19395774602890015, 0.024073351174592972, 0.09695383906364441, 0.015917425975203514, -0.031217141076922417, -0.12398684769868851, -0.26611319184303284, -0.0564642958343029, -0.12035154551267624, 0.10463632643222809], [0.12656916677951813, 0.020249126479029655, 0.34464871883392334, -0.20367006957530975, 0.1988787055015564, 0.1963467299938202, 0.16286779940128326, -0.06959004700183868, 0.12491154670715332, -0.04530339315533638, -0.26418930292129517, 0.17550025880336761, -0.09705331176519394, -0.18336978554725647, 0.09747851639986038, 0.3480008542537689, -0.4091111719608307, 0.18784677982330322, 0.13980570435523987, 0.3228323459625244, -0.12492980062961578, 0.07059523463249207, -0.013195930980145931, -0.08448714017868042, -0.1180485188961029, -0.36536720395088196, 0.13791467249393463, -0.30348291993141174, 0.06980440020561218, -0.10157638043165207, -0.0440153144299984, 0.008861113339662552, 0.04591871052980423, -0.037692610174417496, 0.19382716715335846, 0.1320255696773529, -0.251442015171051, 0.0321483314037323, 0.10700064152479172, -0.08130659908056259, -0.09454473853111267, 0.09104590117931366, -0.28174641728401184, -0.08076544106006622, 0.08212877064943314, -0.15965992212295532, -0.09648281335830688, 0.007097070571035147, -0.14761580526828766, -0.04106442257761955, 0.10019595175981522, -0.09381910413503647, -0.13486936688423157, -0.43907901644706726, -0.11365913599729538, 0.04495535045862198, 0.16134360432624817, 0.13909174501895905, 0.12748301029205322, -0.048574648797512054, -0.2652261555194855, -0.30819353461265564, -0.10115762054920197, 0.17401061952114105], [-0.07919475436210632, -0.12253409624099731, -0.0787455141544342, 0.08397461473941803, 0.024455970153212547, -0.10009539127349854, 0.10194016247987747, -0.07230622321367264, -0.030621666461229324, 0.07647358626127243, 0.29630520939826965, -0.06322404742240906, -0.002534211613237858, -0.03426334261894226, 0.05368746072053909, -0.047592781484127045, -0.001767586451023817, 0.02018064074218273, 0.026247821748256683, 0.08580148220062256, 0.1351986676454544, -0.042587760835886, 0.21412885189056396, -0.06960220634937286, 0.2247525155544281, 0.02638992667198181, -0.019349852576851845, -0.02031310833990574, 0.03949800878763199, 0.0918177142739296, -0.1698201596736908, -0.21668744087219238, -0.1632644087076187, 0.021406423300504684, -0.06107080355286598, -0.01463280338793993, -0.08387116342782974, 0.08814384788274765, 0.18717440962791443, -0.005569854285567999, 0.10381204634904861, -0.1634206473827362, 0.0020801802165806293, 0.17871221899986267, 0.04283898323774338, 0.22143764793872833, 0.07101506739854813, 0.0603736937046051, 0.046123262494802475, 0.059996627271175385, -0.05241783708333969, 0.07746471464633942, 0.03084753453731537, 0.2619726061820984, -0.04216669127345085, 0.025748062878847122, -0.2483999878168106, -0.04851339012384415, -0.023987291380763054, -0.09842841327190399, 0.05423484370112419, 0.08885195851325989, 0.0049314177595078945, -0.1720103770494461], [0.13445502519607544, -0.028995446860790253, 0.034404683858156204, -0.28941527009010315, 0.030553529039025307, 0.23980100452899933, 0.002905465429648757, 0.09890064597129822, -0.06472232192754745, 0.11521884053945541, -0.1329936683177948, 0.016971411183476448, -0.20310716331005096, -0.2426682710647583, 0.30471548438072205, 0.2405332326889038, -0.07392233610153198, 0.06616009026765823, 0.29276198148727417, -0.0009986055083572865, -0.23725898563861847, 0.2057923525571823, 0.008163494989275932, 0.04547802358865738, -0.29693958163261414, -0.05214643478393555, -0.11283653229475021, -0.024555470794439316, 0.04410022124648094, 0.07419224083423615, -0.16213780641555786, 0.09283073991537094, 0.3083339333534241, -0.06601934880018234, 0.040023162961006165, 0.12177500128746033, -0.05212987959384918, -0.17166924476623535, 0.05498592555522919, 0.023152140900492668, -0.2652478516101837, -0.0018606350058689713, -0.3578201234340668, -0.13710848987102509, 0.12177076190710068, -0.24363522231578827, -0.0381535179913044, -0.07102064043283463, -0.0843803659081459, -0.09546458721160889, 0.006048822775483131, 0.0037286127917468548, -0.04831748455762863, -0.025870567187666893, -0.03695159777998924, 0.05021822452545166, 0.07886344939470291, 0.14505167305469513, 0.060647960752248764, 0.1683710217475891, 0.1370556503534317, -0.18482665717601776, 0.09741576015949249, 0.0517522469162941], [0.0212493184953928, 0.22799532115459442, 0.06648331880569458, -0.005734853446483612, -0.06695327162742615, 0.019949445500969887, -0.15056560933589935, -0.07919616252183914, 0.11341980844736099, 0.09882081300020218, 0.17586801946163177, -0.15757504105567932, -0.09774858504533768, -0.10064094513654709, 0.17703412473201752, -0.003842746140435338, -0.10065877437591553, 0.16300317645072937, 0.0631340742111206, 0.1452701985836029, -0.05414307862520218, 0.07109498232603073, -0.023277923464775085, 0.02036277949810028, -0.3634176254272461, 0.07034219801425934, 0.0002877643273677677, 0.021427713334560394, -0.1549016684293747, 0.24423904716968536, -0.1998153030872345, -0.07091070711612701, 0.2394871711730957, -0.06134357303380966, 0.22324448823928833, 0.030869143083691597, 0.16254307329654694, -0.20115865767002106, -0.04017593339085579, -0.19041743874549866, -0.04718969389796257, -0.4006144404411316, 0.25523561239242554, 0.0627145767211914, 0.053937844932079315, -0.21535062789916992, -0.008809366263449192, -0.04374275356531143, 0.015471558086574078, 0.40994808077812195, 0.17861780524253845, 0.09637849777936935, -0.039207279682159424, -0.05022181198000908, -0.13103114068508148, 0.10864287614822388, -0.11620473861694336, -0.11876977980136871, 0.15323449671268463, 0.126289501786232, 0.12873855233192444, -0.14234153926372528, 0.12927845120429993, -0.08291067183017731], [-0.1944081038236618, 0.24029532074928284, 0.09303462505340576, 0.1489088237285614, 0.0750867947936058, 0.14820940792560577, 0.11027175188064575, 0.15409478545188904, -0.011772544123232365, -0.059466153383255005, 0.17178867757320404, -0.005606716498732567, -0.05505957081913948, -0.11313496530056, -0.16671161353588104, 0.0989304631948471, 0.10754569619894028, 0.11480439454317093, 0.010649367235600948, 8.612275996711105e-05, -0.02622249536216259, 0.07352329790592194, 0.04339486360549927, 0.014991668052971363, -0.0926802009344101, -0.036490291357040405, -0.06201951578259468, 0.1281770020723343, -0.12248046696186066, 0.09077555686235428, -0.13709065318107605, -0.18582618236541748, 0.007786356844007969, 0.12710894644260406, -0.04271666705608368, 0.07364225387573242, 0.14262160658836365, 0.19025525450706482, -0.22684170305728912, -0.23244835436344147, -0.22412703931331635, 0.026731841266155243, 0.06652121990919113, 0.0863063707947731, 0.14333795011043549, 0.009471610188484192, -0.08503204584121704, -0.07253038883209229, 0.12419060617685318, 0.10965556651353836, 0.13120225071907043, 0.01161449495702982, 0.1126597672700882, 0.15119808912277222, -0.0409497506916523, 0.07523181289434433, 0.00998634658753872, -0.18833723664283752, 0.0015241451328620315, -0.028574423864483833, 0.0652778223156929, -0.006708649918437004, 0.15957976877689362, -0.31604695320129395], [-0.07012051343917847, -0.07968602329492569, -0.10094654560089111, -0.37203270196914673, 0.10885448753833771, 0.0331856943666935, -0.0755622610449791, 0.1070614755153656, -0.03821120783686638, 0.11947153508663177, -0.13467451930046082, 0.014674446545541286, 0.019100157544016838, 0.013369177468121052, 0.07744215428829193, 0.2752605974674225, -0.17714259028434753, 0.05029048025608063, 0.08120892196893692, 0.422999769449234, -0.08974117785692215, 0.4315545856952667, 0.12207057327032089, 0.08038491755723953, 0.17633366584777832, 0.1433124989271164, 0.011549052782356739, -0.20528095960617065, 0.08779346197843552, -0.05040265992283821, -0.01974411867558956, 0.11885726451873779, 0.028527436777949333, 0.0741957351565361, 0.2245015949010849, 0.18008041381835938, -0.3193075954914093, -0.1607813537120819, 0.02449476532638073, -0.228831484913826, -0.21971355378627777, 0.04716707020998001, -0.18176338076591492, 0.07443318516016006, 0.1493547260761261, -0.1791161298751831, 0.12245329469442368, -0.1194290891289711, -0.0465104915201664, -0.037393730133771896, -0.019515208899974823, 0.005509274546056986, -0.050036534667015076, -0.06285464763641357, 0.09149350970983505, -0.012805217877030373, 0.15486173331737518, 0.06498929113149643, 0.11518346518278122, 0.014082193374633789, -0.21160510182380676, -0.12514881789684296, 0.07983262836933136, 0.041509635746479034], [0.17835406959056854, -0.12940451502799988, 0.17435605823993683, -0.1782252937555313, -0.07633017748594284, 0.08924390375614166, 0.015685224905610085, 0.02486603893339634, -0.07888174057006836, -0.09051009267568588, -0.11122141778469086, 0.13608796894550323, 0.0043114530853927135, 0.148871049284935, 0.005475855432450771, 0.032317813485860825, -0.16640782356262207, 0.07751517742872238, 0.07724052667617798, -0.026206212118268013, -0.016773439943790436, 0.016884369775652885, 0.2938597798347473, 0.09112472832202911, 0.04198731482028961, -0.14797820150852203, -0.04502696916460991, 0.046024709939956665, -0.0433463454246521, -0.062021736055612564, 0.17757484316825867, -0.03068561479449272, 0.0316389761865139, -0.16681504249572754, 0.03701630234718323, 0.047053683549165726, -0.19346478581428528, 0.053278278559446335, 0.19783733785152435, 0.10364141315221786, 0.040702786296606064, 0.0540195032954216, -0.06965214014053345, -0.14446720480918884, 0.10498443245887756, -0.06025258079171181, -0.04781302809715271, 0.10838084667921066, -0.11321119964122772, 0.11625194549560547, 0.2408100664615631, -0.12768128514289856, 0.12755367159843445, -0.0466732420027256, 0.03706485405564308, 0.1607975959777832, 0.05014486983418465, -0.08960028737783432, 0.017330709844827652, 0.06702287495136261, -0.1258988082408905, -0.12289239466190338, -0.015087345615029335, -0.3331949710845947], [-0.29810839891433716, 0.11658748984336853, 0.055115554481744766, -0.1382354348897934, -0.3224280774593353, -0.09229855984449387, 0.1278892606496811, 0.39367085695266724, -0.6278568506240845, -0.09385494887828827, 0.015756547451019287, -0.6507006287574768, 0.342688649892807, 0.14187747240066528, -0.7443476319313049, -0.1661558300256729, 0.12793861329555511, -0.21619680523872375, -0.2740461230278015, -0.07876763492822647, 0.48303544521331787, 0.050614818930625916, 0.38514965772628784, -0.4850800037384033, 0.18325349688529968, -0.09394696354866028, -0.6637617349624634, -0.045507051050662994, -0.34836021065711975, 0.40587785840034485, -0.33066046237945557, -0.4658075273036957, -0.331692636013031, 0.5156307220458984, -0.6466279029846191, -0.10254625231027603, 0.21138323843479156, -0.05621016398072243, 0.01609494723379612, -0.348935067653656, 0.2759716510772705, 0.33229517936706543, 0.3358655869960785, 0.19094987213611603, -0.10545649379491806, 0.1622210144996643, -0.4040149748325348, -0.03425474092364311, -0.007790279574692249, 0.08210275322198868, -0.30410173535346985, 0.041251301765441895, 0.2831231951713562, 0.44449108839035034, 0.11996204406023026, -0.1466316431760788, -0.6215657591819763, -0.14578460156917572, -0.2828091084957123, -0.13024109601974487, -0.08579138666391373, -0.03397846594452858, 0.08392119407653809, -0.27259811758995056], [0.0016860852483659983, 0.04588455334305763, 0.03610584884881973, 0.02560098096728325, -0.04590362682938576, 0.11420876532793045, 0.16359077394008636, 0.09162016212940216, 0.034521397203207016, -0.03951461613178253, -0.15957190096378326, -0.040052980184555054, -0.024739068001508713, 0.08557024598121643, 0.077183797955513, 0.21127916872501373, 0.015780793502926826, 0.01761716790497303, 0.0654771476984024, 0.06765998899936676, -0.014929420314729214, 0.10520756244659424, -0.09846575558185577, -0.0768856331706047, 0.0594232939183712, 0.0833994448184967, 0.01118956133723259, -0.04467516019940376, 0.17611561715602875, 0.037308018654584885, 0.0299157053232193, -0.02564246580004692, -0.07265826314687729, -0.07371491938829422, -0.017851833254098892, -0.06275302171707153, 0.0037101374473422766, -0.06549316644668579, 0.03987639397382736, -0.04599256440997124, 0.04400158300995827, -0.0789729505777359, -0.0907384529709816, 0.13395124673843384, 0.02167319320142269, 0.08268856257200241, -0.02089861035346985, 0.09109606593847275, -0.02567414939403534, 0.026866525411605835, 0.05744431912899017, -0.06307581067085266, 0.08114621788263321, 0.14440149068832397, 0.016291890293359756, 0.06302663683891296, 0.1098758727312088, 0.08453673869371414, 0.11917562037706375, -0.03719854727387428, -0.07335895299911499, 0.012689515948295593, 0.11975057423114777, -0.06902986764907837], [-0.008737708441913128, 0.12997359037399292, -0.07490097731351852, -0.32204461097717285, -0.0820833370089531, -0.06642206013202667, 0.14755845069885254, 0.06501654535531998, 0.014095122925937176, -0.21923278272151947, -0.10651687532663345, 0.048405569046735764, 0.049993064254522324, 0.08741077035665512, 0.13230186700820923, 0.2553902864456177, 0.025218069553375244, 0.017338309437036514, 0.14976337552070618, 0.036773789674043655, 0.01961781457066536, -0.02336738631129265, 0.13734275102615356, 0.08097712695598602, -0.04950716719031334, -0.18073612451553345, 0.03369174152612686, -0.20794913172721863, 0.033444106578826904, 0.015400842763483524, 0.08298297971487045, -0.015083512291312218, -0.03044414333999157, -0.11348044872283936, -0.05957633629441261, 0.10636261850595474, -0.1993648111820221, 0.024694079533219337, -0.051172491163015366, -0.12525399029254913, 0.05534713715314865, 0.0885552167892456, 0.11066973209381104, 0.08520039170980453, -0.20086942613124847, -0.29719528555870056, -0.05013328418135643, 0.10538776218891144, 0.013172391802072525, 0.12861214578151703, -0.05768419802188873, -0.1794932633638382, 0.11082106083631516, -0.06878876686096191, -0.10455110669136047, 0.1332734227180481, -0.05270123481750488, 0.0021730675362050533, 0.16528411209583282, -0.10070738196372986, 0.010946476832032204, -0.08600613474845886, 0.06457541882991791, 0.19029243290424347], [-0.07881570607423782, 0.012467251159250736, -0.07167963683605194, -0.07518399506807327, 0.0406888872385025, 0.0032819602638483047, 0.13855032622814178, -0.12487192451953888, -0.037032049149274826, 0.02103411592543125, -0.10877015441656113, 0.008347990922629833, -0.026619233191013336, 0.12512631714344025, -0.08445390313863754, 0.026587389409542084, 0.18402333557605743, -0.05242388695478439, 0.06749317049980164, -0.1017003059387207, -0.0017922705737873912, 0.0560789629817009, 0.1861177384853363, 0.08195473998785019, 0.021949579939246178, -0.15192914009094238, -0.04788275435566902, 0.0005675358697772026, 0.0025589955039322376, -0.011251277290284634, -0.03656131401658058, 0.08143886923789978, 0.016421375796198845, 0.0062279473058879375, -0.07445088773965836, 0.12296196818351746, -0.11289173364639282, 0.04989493638277054, 0.06623401492834091, 0.0676722526550293, 0.10069145262241364, 0.04072555527091026, -0.028965981677174568, -0.1522693783044815, -0.08782652020454407, 0.10441373288631439, 0.1005721315741539, -0.06989556550979614, 0.13185076415538788, -0.03570714220404625, 0.1175137609243393, 0.05413776636123657, 0.10747236013412476, 0.1593681126832962, 0.09907381981611252, 0.1178046315908432, 0.07824490964412689, 0.063618004322052, -0.02840738743543625, -0.012613290920853615, 0.050704944878816605, 0.14531919360160828, 0.004769235849380493, 0.08009602874517441], [0.23170910775661469, -0.030694540590047836, 0.14245185256004333, -0.061554916203022, 0.21150986850261688, 0.03510289639234543, 0.08200463652610779, 0.13427869975566864, -0.03438398241996765, -0.15257048606872559, 0.13757385313510895, 0.16126295924186707, -0.06309820711612701, -0.1651318520307541, 0.016056369990110397, -0.1093866378068924, -0.20676307380199432, 0.12747502326965332, 0.07973117381334305, -0.017585400491952896, -0.03274611756205559, 0.10673346370458603, 0.0711866244673729, 0.007423835806548595, 0.11204351484775543, -0.2990444302558899, 0.11556905508041382, -0.12063337862491608, -0.0614938847720623, -0.11545675247907639, 0.22678080201148987, 0.03794510290026665, 0.11162843555212021, -0.14151516556739807, 0.11743763089179993, 0.15662197768688202, 0.017613699659705162, 0.03290499746799469, 0.19268381595611572, 0.22784431278705597, -0.12684407830238342, -0.04785080999135971, 0.013115759938955307, -0.17057891190052032, 0.06393669545650482, -0.12945416569709778, 0.07043210417032242, 0.19949521124362946, -0.23451624810695648, -0.16657333076000214, 0.17459721863269806, -0.047280531376600266, -0.25915661454200745, -0.062341757118701935, 0.037290092557668686, 0.0131685147061944, 0.07686679810285568, -0.04559340700507164, 0.23804347217082977, -0.03827746585011482, 0.034518107771873474, -0.17423191666603088, -0.05279562249779701, -0.1324613392353058], [0.0976237803697586, -0.06202038750052452, 0.17513048648834229, -0.12955859303474426, 0.18942534923553467, 0.12636563181877136, -0.018947599455714226, 0.17504984140396118, 0.09902580827474594, -0.022783365100622177, -0.04527515172958374, 0.44671836495399475, -0.13053278625011444, 0.026937108486890793, 0.11888889968395233, 0.15077728033065796, -0.1399880349636078, 0.14676226675510406, 0.25033241510391235, 0.004716385155916214, -0.17624996602535248, 0.0002495422959327698, 0.009234856814146042, 0.10255740582942963, -0.06997932493686676, -0.1102471724152565, 0.10539619624614716, -0.1446889191865921, -0.22141136229038239, -0.09711408615112305, 0.2950572967529297, 0.030965426936745644, 0.04605057090520859, -0.28378140926361084, 0.17286838591098785, 0.04207095503807068, 0.04333214834332466, 0.07598420232534409, 0.18054305016994476, -0.12895815074443817, -0.2041560262441635, -0.04485749453306198, -0.44994068145751953, -0.08029589056968689, 0.14942054450511932, -0.21581672132015228, 0.09434335678815842, 0.21065212786197662, -0.11761350929737091, -0.2931555509567261, 0.17816585302352905, -0.051127053797245026, -0.05904344841837883, -0.02155798301100731, 0.07269803434610367, -0.07378295063972473, 0.3295336961746216, -0.07438633590936661, -0.13171592354774475, 0.11647975444793701, -0.006477974820882082, -0.07122750580310822, -0.07272287458181381, -0.05949262157082558], [0.18139369785785675, 0.04152670130133629, 0.1734990030527115, -0.019713765010237694, 0.06645863503217697, 0.10832254588603973, 0.10848168283700943, 0.015084581449627876, 0.06496859341859818, 0.031312331557273865, 0.19567200541496277, 0.10071130841970444, -0.05471119284629822, -0.15724284946918488, 0.07030605524778366, 0.09072566777467728, 0.07837335020303726, 0.011676587164402008, -0.07047314941883087, -0.011043545790016651, 0.046931080520153046, -0.020900608971714973, 0.09483960270881653, 0.12608002126216888, 0.09531176835298538, -0.10823140293359756, -0.03754666447639465, -0.04834917560219765, 0.14263106882572174, -0.12378247827291489, -0.10168478637933731, -0.04399321228265762, 0.18098744750022888, 0.06852970272302628, 0.09604115039110184, 0.17606127262115479, 0.052546508610248566, -0.03820597007870674, -0.07718676328659058, -0.03102910704910755, 0.06908367574214935, 0.04720589891076088, 0.09225305169820786, 0.05583992227911949, 0.13709378242492676, 0.009670542553067207, -0.005606551188975573, 0.0471709743142128, -0.08547654747962952, 0.13160139322280884, -0.0040933601558208466, 0.16097502410411835, 0.06207747012376785, 0.006747575011104345, 0.10763805359601974, 0.1616470217704773, 0.16477222740650177, 0.0431266687810421, 0.16817530989646912, -0.010476706549525261, 0.1403658539056778, 0.06428391486406326, 0.006182736251503229, 0.07088489085435867], [-0.13710534572601318, 0.12728530168533325, 0.1010979488492012, 0.06694070249795914, -0.20723815262317657, -0.022256119176745415, -0.2693256735801697, 0.07403820008039474, 0.029496947303414345, -0.0573531910777092, 0.09454812854528427, 0.028683170676231384, 0.13753202557563782, 0.25834348797798157, -0.0939677506685257, 0.01473166048526764, 0.0498647503554821, -0.2113373726606369, 0.038462769240140915, -0.12776164710521698, 0.17412367463111877, -0.055833134800195694, -0.02129114419221878, 0.16311033070087433, 0.15924738347530365, 0.06009969860315323, 0.04429624602198601, 0.10992658138275146, -0.19064590334892273, -0.00948767177760601, -0.38695329427719116, -0.06851834803819656, -0.23071882128715515, 0.18277710676193237, -0.27803027629852295, -0.010680784471333027, 0.11296519637107849, 0.13889561593532562, -0.09048352390527725, -0.2734377682209015, 0.1921391785144806, -0.08577744662761688, 0.029128320515155792, 0.18195314705371857, 0.0062190936878323555, 0.10727550089359283, -0.19707363843917847, 0.04812658950686455, 0.16412977874279022, 0.0754031166434288, -0.17636863887310028, 0.061364173889160156, 0.13899634778499603, 0.13601988554000854, 0.145610511302948, -0.08314616978168488, -0.37604454159736633, 0.03687271103262901, 0.0015139153692871332, -0.12361319363117218, 0.1038314551115036, -0.04655051976442337, 0.1399424523115158, -0.12174128741025925], [-0.04453089460730553, -0.09762638807296753, -0.10086953639984131, -0.09501949697732925, 0.025836128741502762, -0.08422014117240906, 0.14903759956359863, -0.018267320469021797, -0.02909272350370884, -0.06487274169921875, 0.06092265248298645, -0.20232939720153809, 0.17579025030136108, -0.04356630519032478, -0.11554764211177826, -0.05549229308962822, -0.09763696789741516, 0.15407434105873108, 0.08532285690307617, 0.29713520407676697, -0.009656122885644436, -0.24155160784721375, -0.08360127359628677, -0.013706290163099766, 0.05488183721899986, -0.09246053546667099, 0.018207110464572906, 0.0757291316986084, 0.06331691890954971, 0.09818467497825623, -0.004884321708232164, 0.023527732118964195, 0.007195454090833664, 0.012225434184074402, -0.029341712594032288, -0.1592734009027481, -0.026252953335642815, 0.18468834459781647, -0.06763406097888947, -0.14638914167881012, 0.1293153017759323, 0.0540233850479126, 0.09777649492025375, 0.164486363530159, -0.029251130297780037, 0.023390378803014755, 0.13760623335838318, 0.002674466697499156, -0.068337582051754, -0.05170077458024025, 0.18912434577941895, 0.10373073816299438, -0.023634187877178192, -0.3302878141403198, -0.034772440791130066, -0.10665284842252731, 0.046740442514419556, -0.07908429205417633, -0.022094734013080597, -0.00954167079180479, -0.08738736063241959, 0.11972536146640778, 0.011091114953160286, 0.1115085706114769], [-0.03525329753756523, 0.03991628438234329, 0.06167422607541084, 0.05273551121354103, -0.02324971929192543, 0.04577142372727394, -0.045666132122278214, 0.1149250715970993, 0.05750999599695206, 0.06190544739365578, 0.09400678426027298, 0.10386373102664948, 0.11544032394886017, 0.024409566074609756, 0.0529768243432045, 0.13796526193618774, -0.013746485114097595, 0.06682442873716354, 0.0355084165930748, -0.06400042772293091, -0.04343588277697563, 0.012248215265572071, -0.031466949731111526, 0.08733288198709488, 0.08023151755332947, -0.04121062532067299, 0.021088270470499992, -0.03528410941362381, 0.08610542863607407, -0.01032573077827692, -0.08379784226417542, -0.0571768619120121, 0.08750861138105392, 0.017676277086138725, -0.06188199669122696, 0.06263463199138641, -0.17969350516796112, 0.013063563033938408, 0.10114774107933044, 0.04057837277650833, 0.00471966527402401, -0.11636246740818024, -0.02280331961810589, 0.08198527991771698, 0.05145619437098503, 0.023396315053105354, 0.1076456680893898, 0.06250900775194168, 0.0671500414609909, -0.10970143973827362, 0.09555654227733612, -0.046259816735982895, 0.024821385741233826, 0.10476577281951904, -0.10956618189811707, 0.058230310678482056, -0.04576542228460312, 0.10542716085910797, 0.11305133998394012, 0.05700903758406639, 0.014394271187484264, 0.05985909700393677, -0.058739081025123596, 0.03511349856853485], [0.16018666326999664, -0.11899323016405106, 0.01116069033741951, -0.06693532317876816, 0.10233205556869507, 0.09603027254343033, 0.20637018978595734, -0.03104066476225853, 0.08881539851427078, 0.018813494592905045, -0.05880125239491463, 0.0731295570731163, 0.11262115836143494, 0.004292443860322237, 0.09233663231134415, 0.11069308966398239, -0.22992423176765442, 0.008161214180290699, 0.1062248945236206, 0.18290174007415771, -0.20496174693107605, 0.28734293580055237, 0.11636758595705032, 0.09315666556358337, 0.05135159566998482, -0.254309743642807, 0.05747954174876213, 0.05554962158203125, 0.16620706021785736, 0.09058842062950134, 0.09945419430732727, 0.060325320810079575, 0.10685062408447266, -0.10229175537824631, 0.2620202302932739, -0.17770938575267792, -0.17995549738407135, 0.035132959485054016, 0.07299190759658813, 0.06816229969263077, -0.11661504209041595, 0.09101470559835434, -0.051294244825839996, -0.1623958796262741, 0.032758645713329315, -0.09839645773172379, -0.005574050825089216, 0.09525980055332184, -0.023237444460392, -0.06437793374061584, 0.11381958425045013, -0.08646366745233536, 0.05902338773012161, -0.33211880922317505, -0.05811260640621185, -0.01557863038033247, 0.012713510543107986, 0.0370001383125782, 0.11454906314611435, 0.017206648364663124, -0.37771350145339966, 0.006302088964730501, -0.21824464201927185, 0.11725320667028427], [-0.11975382268428802, 0.05195523053407669, 0.07310380041599274, 0.0769263356924057, -0.06613434106111526, 0.06659793108701706, -0.12062536180019379, 0.015778834000229836, -0.1078745648264885, -0.12578023970127106, -0.1459057480096817, -0.12227234989404678, -0.06789366155862808, -0.08095409721136093, -0.012002144940197468, 0.10845966637134552, -0.05987578257918358, 0.008699414320290089, -0.08894190937280655, 0.048420075327157974, 0.0053259641863405704, 0.027732456102967262, 0.03137688711285591, -0.010955178178846836, -0.08173342794179916, -0.029119769111275673, -0.03932751342654228, 0.018215851858258247, -0.04634299501776695, -0.1316787749528885, -0.003552784211933613, -0.052110183984041214, -0.09441865980625153, -0.02570578083395958, 0.018157189711928368, -0.07442765682935715, 0.002906177891418338, 0.06455116719007492, -0.08937393128871918, -0.058128587901592255, -0.07032186537981033, -0.031799715012311935, -0.05066705867648125, -0.10135050117969513, 0.026811828836798668, -0.08052298426628113, 0.10048649460077286, -0.010011146776378155, -0.03935714811086655, -0.07660365104675293, 0.046729058027267456, 0.05896850675344467, -0.038187794387340546, -0.07629793137311935, 0.0642675831913948, -0.05147099867463112, -0.03903990983963013, -0.014434882439672947, -0.0454854778945446, -0.0518011637032032, -0.11333273351192474, -0.10115120559930801, 0.005078316666185856, 0.08476952463388443], [0.1863706409931183, -0.002353202784433961, 0.11963136494159698, -0.1953088790178299, -0.012656480073928833, 0.2348112314939499, 0.03929133340716362, -0.040748290717601776, 0.1311800628900528, -0.07952391356229782, -0.08257957547903061, 0.13831569254398346, -0.1948683261871338, -0.15362198650836945, 0.15961088240146637, 0.09337474405765533, 1.6570753359701484e-05, 0.09044291079044342, 0.07190267741680145, 0.19749274849891663, -0.06635742634534836, 0.16860845685005188, 0.18163178861141205, -0.0723736584186554, -0.26436954736709595, -0.024968277662992477, 0.14344611763954163, -0.17069551348686218, -0.04607859253883362, -0.08216600865125656, 0.1613144427537918, 0.1400221288204193, 0.10709703713655472, -0.085466168820858, 0.13477608561515808, 0.13489389419555664, -0.060603246092796326, -0.06835255026817322, 0.04035709798336029, -0.2029852569103241, -0.22230087220668793, -0.019691092893481255, -0.19948378205299377, -0.1769593358039856, 0.144908607006073, -0.08441875874996185, -0.15702521800994873, 0.09975970536470413, -0.1284492164850235, -0.04010371118783951, -0.05716788023710251, -0.03449593856930733, -0.17609049379825592, 0.07920921593904495, 0.09375707805156708, 0.13742248713970184, 0.18881672620773315, -0.053754694759845734, 0.1364731341600418, 0.10297895967960358, -0.13533829152584076, -0.20054084062576294, 0.04520782083272934, -0.03198991343379021], [-0.08213844895362854, -0.14151524007320404, 0.12332837283611298, -0.06954565644264221, 0.11076264083385468, -0.06448129564523697, 0.23455588519573212, -0.045197565108537674, -0.01061050221323967, -0.005761663895100355, -0.085444375872612, 0.2563974857330322, -0.22044610977172852, -0.13801777362823486, 0.2145235538482666, -0.021881654858589172, 0.03926819935441017, 0.027786457911133766, -0.10880328714847565, 0.2148081213235855, 0.19083154201507568, 0.08633369952440262, 0.12411471456289291, -0.08511977642774582, -0.12315975874662399, -0.10009446740150452, 0.1661001592874527, 0.02281891368329525, -0.20202085375785828, 0.15789581835269928, 0.2839473485946655, -0.18757246434688568, 0.1771441102027893, 0.003965042531490326, 0.04808918759226799, 0.03195672854781151, -0.11609302461147308, -0.22243572771549225, 0.07394185662269592, 0.30913904309272766, -0.13093124330043793, -0.02423437498509884, -0.22572125494480133, -0.09253105521202087, -0.07252725213766098, -0.08916962891817093, 0.12243490666151047, -0.0147861298173666, -0.05850350484251976, -0.26844581961631775, -0.01705808937549591, -0.04502579942345619, -0.07593370229005814, 0.04141145944595337, 0.03612315654754639, 0.08571285754442215, -0.08427750319242477, -0.16679413616657257, 0.09747001528739929, 0.013254690915346146, -0.02063923515379429, -0.07020144909620285, 0.0459136925637722, 0.04325353726744652], [-0.0057006715796887875, 0.0994766429066658, -0.02477240562438965, 0.15575677156448364, -0.023990103974938393, -0.11786291748285294, -0.01518096774816513, -0.07717069238424301, 0.06633734703063965, 0.08421453088521957, 0.012937487103044987, -0.12329292297363281, 0.06150538846850395, 0.058555714786052704, 0.01956203579902649, -0.18762701749801636, 0.05680573359131813, -0.05273822322487831, 0.01751193404197693, -0.32960081100463867, 0.10049489140510559, -0.18786334991455078, 0.05297858268022537, -0.009817744605243206, 0.053896576166152954, 0.1626962572336197, -0.10489029437303543, -0.007983610965311527, 0.07144100219011307, -0.1157618835568428, -0.071222685277462, -0.11998981982469559, -0.033715710043907166, -0.008113316260278225, 0.05818488076329231, 0.13585041463375092, 0.07505974173545837, 0.22586728632450104, -0.047279708087444305, -0.05974239110946655, 0.11450336873531342, 0.13507699966430664, -0.1221475824713707, -0.07790978252887726, -0.20958825945854187, 0.21728669106960297, -0.1065807044506073, -0.03688611090183258, -0.023786336183547974, -0.02012059837579727, -0.07482951134443283, 0.04919146001338959, 0.13725697994232178, 0.08432211726903915, 0.14505116641521454, -0.13108430802822113, 0.04826455935835838, 0.11030308157205582, -0.15814988315105438, -0.06503207981586456, 0.09551827609539032, 0.10381843149662018, -0.08834192901849747, 0.0705280676484108], [-0.18352463841438293, 0.05910729989409447, 0.0717591643333435, -0.01148539874702692, -0.18342211842536926, 0.06896243244409561, -0.30272310972213745, -0.24129731953144073, -0.30280691385269165, -0.055527813732624054, 0.22901825606822968, -0.431835800409317, 0.13367323577404022, 0.00866813212633133, 0.07594434171915054, -0.13120266795158386, -0.06888793408870697, -0.14659962058067322, -0.11455792933702469, -0.027652358636260033, -0.08349751681089401, 0.03850044682621956, -0.009540700353682041, -0.011424016207456589, 0.17431673407554626, -0.22308650612831116, -0.1422659456729889, -0.08569037914276123, 0.1822577863931656, -0.02611677721142769, -0.4174209535121918, 0.060395583510398865, 0.09852950274944305, -0.3105565309524536, -0.08234403282403946, -0.03173849731683731, 0.10540127754211426, 0.09591562300920486, -0.22692187130451202, -0.14488999545574188, 0.2869901657104492, -0.24222062528133392, -0.1731998771429062, 0.21432337164878845, 0.16226083040237427, 0.33316612243652344, -0.12781459093093872, -0.039924487471580505, -0.023433979600667953, 0.041316572576761246, -0.1882106363773346, 0.15923695266246796, 0.0943666622042656, 0.009416741319000721, 0.16007371246814728, 0.046453896909952164, -0.05543370172381401, 0.15314629673957825, -0.257330060005188, -0.019784314557909966, 0.06918546557426453, 0.0991121158003807, 0.1672240048646927, -0.20194101333618164], [-0.8581991195678711, 0.22985950112342834, 0.17696641385555267, -0.26156315207481384, -0.41332200169563293, 0.19213712215423584, -0.01345852017402649, 0.17278172075748444, -0.5313338041305542, -0.419161856174469, 0.46356773376464844, 0.12359493225812912, 0.029585199430584908, 0.6378156542778015, -0.9517671465873718, -0.1257895976305008, 0.09276631474494934, -0.25572338700294495, -0.3675213158130646, 0.26853975653648376, 0.3997586965560913, 0.2955211400985718, -0.2584973871707916, 0.20805978775024414, 0.3070395290851593, -0.14256052672863007, -0.4894564151763916, 0.08590066432952881, -0.12090777605772018, 0.3163255453109741, -0.2960642874240875, -0.2677967846393585, -0.5538448691368103, -0.24114775657653809, -0.18978716433048248, -0.23150603473186493, -0.14034152030944824, -0.6260887980461121, -0.339664101600647, -0.1897541582584381, 0.4220587909221649, -0.3326411545276642, -0.22933880984783173, 0.3699970841407776, 0.05853728950023651, 0.4129613935947418, -0.22376832365989685, -0.3811134696006775, 0.029280127957463264, 0.557651162147522, -0.23511902987957, 0.4233149290084839, 0.3036647439002991, 0.18916822969913483, 0.17177224159240723, -0.007612122222781181, -0.56773442029953, 0.17837300896644592, -0.5858697891235352, 0.04303647205233574, -0.42923638224601746, 0.04532384127378464, 0.3441053628921509, -0.43066245317459106], [0.12476003915071487, -0.18546514213085175, 0.003025858663022518, -0.021149886772036552, -0.21238020062446594, 0.04507147893309593, 0.044572614133358, 0.148103266954422, 0.03418201208114624, 0.09558991342782974, -0.2883530259132385, 0.01805890165269375, 0.053505923599004745, 0.32579895853996277, 0.24003669619560242, -0.12018163502216339, -0.032380592077970505, 0.002639335347339511, -0.05020524188876152, 0.25093716382980347, -0.13968420028686523, -0.17178994417190552, -0.09136195480823517, -0.04696767032146454, 0.19110628962516785, -0.13590554893016815, 0.06302279978990555, -0.02639635093510151, -0.03512241318821907, 0.0366765595972538, 0.2231115698814392, -0.21628287434577942, -0.01884361542761326, -0.015489975921809673, 0.10804907977581024, -0.15504133701324463, -0.1638316810131073, 0.07000302523374557, 0.266599178314209, 0.22911861538887024, -0.032598044723272324, -0.09245971590280533, -0.3207991123199463, -0.08752497285604477, -0.21603786945343018, 0.1958516240119934, -0.031410232186317444, 0.08075988292694092, -0.06568706035614014, 0.17945264279842377, 0.20464646816253662, 0.011322415433824062, 0.20565363764762878, 0.1461937129497528, 0.07572252303361893, 